5006 50
r0 -0.013900337 0.23778552 0.2079162 0.2568579 0.05769778 -0.21348518 0.10615578 0.07580476 0.10403763 -0.01166652 0.24878699 0.0693034 0.074796475 -0.02501644 -0.10524234 -0.3240711 -0.07314431 0.11670205 0.049162906 0.06598727 0.048042897 -0.24605714 -0.059806675 0.10055227 0.06786627 -0.096380144 -0.007639903 0.21570142 -0.02982522 0.04800263 -0.010599077 0.06966459 0.17878668 -0.09705444 0.07454001 -0.19545496 0.15789463 -0.08303584 0.00058989704 -0.021595538 -0.28369504 0.04429155 -0.2868614 0.07964304 -0.2184084 0.067360476 -0.13038681 0.19094746 0.05238105 -0.01688548
r5 -0.29437548 0.18147086 -0.022463806 0.07202993 0.21711741 -0.10688015 0.12724565 -0.13427046 -0.009471973 0.11149082 0.1504123 -0.06200866 0.014329029 -0.096241474 -0.0022774823 -0.037865236 0.031224616 0.32394037 -0.0356281 0.0063210945 0.17047606 -0.083878756 0.19524753 -0.24771371 0.18563953 -0.04588356 0.121601425 0.21884772 -0.06337674 -0.027906021 -0.074605584 -0.086882874 0.048127543 -0.110872604 -0.036522157 -0.052255 0.26009303 -0.114144176 0.0013941 0.33672556 -0.18909883 0.13104771 -0.005824907 -0.027335605 -0.0046287677 0.19960812 -0.19586974 -0.028146055 0.0004431743 0.16311327
r2 -0.21554233 0.12248484 0.13303834 0.2244619 0.20183553 -0.18793222 0.09531714 0.14524205 -0.021580718 0.10079083 0.15498346 -0.058754507 0.013848182 0.01707993 0.08662753 0.13103546 0.20659254 0.26429015 0.027489588 -0.025977617 0.07903006 -0.08170785 0.09993748 -0.22095105 0.08981581 0.03901841 0.17820291 0.1947174 -0.084454216 0.03567283 0.16992931 -0.12378291 0.1442704 -0.17165767 0.05094956 -0.054167625 0.28382844 -0.08933783 0.035893988 0.3312651 -0.089704715 -0.030468186 -0.1468388 -0.0062711686 -0.10440566 0.24499495 0.11290082 -0.026817279 -0.093272164 0.06612775
r1 0.04341669 0.019872805 0.0804784 0.2229876 0.26987982 0.038745094 0.12813252 0.07265121 0.034100316 0.11541377 0.012550024 0.057579316 -0.17354968 -0.029409727 0.020282988 0.058226213 0.19385593 0.04485932 -0.063390516 0.17280982 -0.0998418 -0.20702958 0.17930938 -0.0018555004 0.17919438 -0.17070602 0.058192525 0.19120583 0.032695614 -0.0037617476 -0.1292108 -0.14080253 0.20385726 -0.2205913 0.03431888 0.050104044 0.29733098 -0.28541586 0.11506542 0.044252653 -0.050195523 0.019182459 -0.1759792 -0.18255648 0.012879002 0.24410367 0.054758783 -0.027748693 -0.22053662 0.1927998
r6 -0.15450922 0.14364415 -0.007320176 0.19794779 0.1466908 -0.029611317 -0.07385319 0.09250568 0.015699813 0.0447291 -0.019477375 -0.050622314 -0.00097169104 0.033239733 0.08004399 -0.13535409 0.09901843 0.3165553 -0.10418261 -0.06808692 -0.067304336 -0.037678435 0.119828574 -0.2950078 0.18861419 -0.108544454 0.26698524 0.32832798 -0.13795806 -0.11101931 0.042867262 -0.11558945 -0.029544096 -0.17978676 -0.20603342 -0.14172226 0.16220109 -0.06904747 -0.07814971 0.23455767 -0.17387776 0.16197774 -0.040464077 -0.030819947 -0.06570782 0.26144928 -0.10018076 0.029974975 0.00090127066 0.11133153
r4 0.01957767 0.018944526 -0.07898559 -0.038086966 -0.11019433 -0.20585996 0.008091189 0.06938029 0.0682599 -0.18171334 0.15833238 -0.051066168 0.13828161 0.064369254 -0.08300721 0.12262856 0.12720163 0.17346928 0.0034181736 0.16436572 0.11060967 -0.0732624 0.20006038 0.095046945 0.077308774 0.02757707 0.17825112 0.27575672 0.013503568 -0.16208804 -0.11961028 -0.21273665 -0.007041738 -0.28617612 0.049939893 -0.24804541 0.13851315 -0.27647394 0.040721856 0.09724149 -0.25392604 0.23741926 0.094857186 -0.15397471 -0.12951186 0.107291885 -0.035256762 0.19274044 0.055924624 -0.07090241
r3 -0.1442169 0.13450271 0.040906604 0.003939621 -0.013928099 -0.20802571 0.03646831 0.19776943 0.17410794 -0.32264245 0.23573364 0.06700793 0.15159765 0.11708885 0.1629385 -0.030253677 0.038785867 -0.06787428 -0.14955516 0.052706018 0.09808124 -0.006322116 0.2609645 0.17487474 -0.047958158 -0.03359272 0.14215647 0.21310826 0.011022034 -0.04823069 -0.12489159 -0.14361061 -0.121798575 -0.18736193 0.0924138 0.0028965413 0.23999447 -0.19465351 -0.2283629 0.14887492 -0.1518341 0.23237066 0.066212796 -0.10297993 0.045153685 0.08214087 -0.12997866 0.13510808 0.051333684 0.05161202
3817 -0.019554319 -0.15506501 0.04320628 0.09833944 0.02270593 -0.1779813 0.14705566 0.06877579 -0.23215035 0.020303618 -0.14839584 -0.11497336 0.05815912 0.1412302 0.07002023 0.18133815 0.097634 0.3124155 -0.19802338 -0.16821039 0.20163836 -0.105997644 0.13928042 -0.17475203 0.34781316 -0.08092598 -0.124522604 0.1495903 -0.23050165 -0.03935482 0.010093034 -0.11684193 0.012411308 -0.18411674 0.0010705574 -0.1251826 0.27972645 -0.028760878 0.10533697 0.10490827 -0.030821674 -0.0054248367 -0.04039035 -0.007294912 0.09546755 0.009512124 -0.19259511 0.04282128 0.068590246 0.19522
2130 -0.20942499 0.056518693 -0.15427877 0.122504085 0.097816765 -0.25668707 0.16589606 0.055802755 -0.2579349 0.11921918 0.053980567 -0.070622 -0.0076950355 -0.22264586 -0.044068314 0.07207126 0.24211876 0.171328 -0.31461447 -0.016068522 0.12143887 0.2357428 -0.0003517478 0.08609775 0.14241718 0.017987093 0.14185956 0.06372893 -0.27068955 -0.23432444 -0.10812669 0.06178143 0.17234421 -0.11945021 -0.059174813 -0.09747584 0.1845057 -0.07243015 0.0155841485 0.017558616 -0.015646461 -0.048392005 -0.09849198 0.015306832 0.20379663 0.1313937 0.037353165 -0.06917692 0.14918905 0.11239388
2172 -0.1919432 0.12345274 -0.1549012 0.11021221 0.102512315 -0.18729515 0.13811012 0.09256121 -0.25401923 0.057893567 0.015111127 -0.07898103 -0.02998446 -0.20491444 0.050241627 0.056877367 0.28940883 0.19023903 -0.37305653 -0.051945765 0.12561019 0.1958793 0.04203826 0.06678165 0.15444459 -0.0040422385 0.16023526 0.10661127 -0.23599662 -0.2353328 -0.052511077 -0.004613436 0.14233279 -0.130429 -0.041678432 -0.06704172 0.1804844 -0.060818307 -0.015534213 0.0075597246 0.031698186 -0.00031728527 -0.10843713 0.0012570162 0.2609065 0.17790955 0.075617194 -0.0737379 0.08968784 0.082673155
3978 -0.00060927443 -0.006942892 0.013199675 0.08437832 0.07406652 -0.013897112 0.18187395 0.124808945 -0.28116578 -0.003965958 -0.19515057 -0.14147034 0.017954329 0.16442269 0.1388673 0.10821407 -0.004187626 0.13662288 -0.14164369 -0.23647267 0.09182305 0.010061878 0.0007420134 -0.14090513 0.40628093 -0.108969994 -0.1683298 0.11209996 -0.14083071 -0.121266186 -0.052291416 0.025054522 0.10883761 -0.20201892 -0.033647016 -0.036949176 0.35473597 -0.013392067 0.12984458 -0.046763662 0.026588487 -0.021762915 -0.2048629 0.049558382 0.014390171 -0.09320707 -0.29133078 0.08385253 0.106734686 0.07742555
2200 -0.15531489 0.07944834 -0.17132683 0.14940706 0.06010648 -0.13331082 0.1657809 0.11688923 -0.20692772 0.039796732 0.03263696 -0.11059238 -0.052662823 -0.26123437 0.036516313 0.07489561 0.3153411 0.17083226 -0.314648 0.040818546 0.18643981 0.1548383 0.093176484 0.06025195 0.17665 0.021683943 0.139209 0.044362757 -0.20524552 -0.26268923 -0.1078386 0.082008086 0.16288817 -0.17006415 -0.10614531 -0.041333668 0.2525019 -0.10306656 0.008295836 0.015461147 0.045523822 0.039820015 -0.047272105 -0.106037006 0.16366859 0.17477386 0.052881666 -0.07688962 0.024028685 0.09989507
3955 0.11806908 -0.21292019 -0.0400519 0.124445766 -0.009814552 -0.17658916 0.15768544 0.25048763 -0.058955193 0.038242996 -0.14081283 -0.1521082 -0.018815383 0.1667366 0.026699036 0.12591092 0.041297447 0.09527082 -0.21370769 -0.022081507 0.14411251 0.10023264 0.16430739 -0.13091558 0.4119628 -0.13442133 -4.833273e-05 0.105846256 -0.13569853 -0.043601405 -0.07179502 -0.08653546 0.0911599 -0.02432236 -0.14467639 -0.11464029 0.30513623 -0.10942083 0.033017483 0.1822672 -0.27482757 -0.09951725 0.046554748 -0.006167513 -0.036104 -0.019380841 -0.19316314 -0.0031918455 -0.007382953 0.19804476
3959 0.11829563 -0.2195647 -0.035451252 0.13788931 -0.023943713 -0.18131348 0.14801258 0.26801997 -0.056726005 0.045870386 -0.13736194 -0.1487621 -0.010749714 0.18218593 0.030675922 0.113713466 0.052734606 0.09763796 -0.21135134 -0.02938372 0.14864329 0.10654819 0.16041705 -0.13443139 0.3927363 -0.1353501 -0.005198007 0.10759631 -0.13352162 -0.032973737 -0.071858525 -0.09031509 0.08824096 -0.0060509806 -0.13817222 -0.12566778 0.31612432 -0.11199639 0.011452797 0.1747769 -0.25898537 -0.10626998 0.043913238 0.011026701 -0.05105384 -0.023467807 -0.17599353 -0.013319786 -0.018463429 0.21073143
3977 0.11670491 -0.19191739 -0.045663003 0.11421917 -0.010843274 -0.17949885 0.14193773 0.28160587 -0.060866527 0.028973056 -0.14281172 -0.14677295 -0.031458806 0.16853894 0.039505463 0.14186405 0.059948068 0.08787749 -0.194914 -0.023637783 0.13510585 0.10473677 0.16929047 -0.14147551 0.41218445 -0.12852077 0.00861146 0.11648436 -0.12463812 -0.03428455 -0.07935138 -0.06867986 0.095586665 -0.021002801 -0.13719307 -0.11432002 0.32131904 -0.116205566 0.03441618 0.17453699 -0.27010015 -0.10154051 0.050554108 0.0045707324 -0.035103317 -0.016414989 -0.1740375 -0.0025826502 -0.014675534 0.20445934
3841 -0.043911964 0.014084571 -0.022579558 0.018371304 0.023634462 -0.1258409 0.09686033 0.101176426 -0.17401269 -0.13542631 -0.096352436 -0.19468029 0.01847736 0.27546963 0.0960881 0.15922447 0.097823635 0.22772056 -0.2861154 -0.13961609 0.10966381 -0.018700661 0.17124133 -0.18970966 0.4049843 -0.09321207 -0.1106153 0.16412535 -0.12732367 -0.014450275 0.025919136 -0.11890916 -0.035000127 -0.070148006 -0.071510136 0.014270228 0.36745304 0.04135464 0.16830505 0.11853713 -0.06567038 0.0313057 -0.09629154 0.017664803 0.055727847 0.011883457 -0.1796009 0.021101093 0.07905109 0.15223548
3833 -0.036561973 0.018794196 -0.024330774 0.0281872 0.029910635 -0.12975633 0.095927574 0.09248278 -0.16304965 -0.1439647 -0.12096972 -0.19780776 0.017220732 0.26813912 0.09692928 0.15121968 0.08824949 0.23703584 -0.29535526 -0.13255018 0.10519607 -0.003508638 0.17440939 -0.18311451 0.40918666 -0.08613528 -0.09875967 0.16653986 -0.12511846 -0.031844378 0.02925737 -0.13383749 -0.027277421 -0.08303265 -0.07578066 -0.013764756 0.35853836 0.06341659 0.15410586 0.12069667 -0.062844396 0.027313048 -0.09383304 -0.0023896333 0.04638844 0.0022274766 -0.17381167 0.025813272 0.078216724 0.16494067
3843 -0.02633969 0.017746747 -0.024737196 0.014085431 0.059993137 -0.12716341 0.096921034 0.10893827 -0.14676997 -0.14579241 -0.11316879 -0.19798428 0.0080888355 0.2682295 0.0949279 0.16035207 0.08436625 0.22938412 -0.29670858 -0.1276226 0.10214216 -0.022589598 0.19529873 -0.18913941 0.39236623 -0.10363097 -0.13200985 0.16014485 -0.13090563 -0.013539506 0.0074848463 -0.11694514 -0.013123963 -0.095481366 -0.08455988 0.013576623 0.33635578 0.06506641 0.13100863 0.1382395 -0.06949182 0.033688337 -0.08666893 -0.0014024494 0.058530305 -0.0045795348 -0.19969048 0.041301586 0.09119336 0.17547318
3835 -0.0052982736 -0.101943366 -0.044426262 0.11933044 0.062092494 -0.04195191 0.14319132 0.10029211 -0.13942207 0.03473578 -0.20485465 -0.11138559 -0.061630566 0.06935226 0.08227643 0.11564448 0.18299186 0.1969397 -0.24052306 -0.034587175 0.18932252 -0.05346845 0.23076044 -0.15911877 0.39805195 -0.14256375 -0.09897419 0.117950335 -0.101743154 -0.09066265 -0.09585184 -0.08833867 0.02819313 -0.2415209 -0.14891163 -0.103334576 0.287507 -0.03590523 0.097216584 0.11538294 -0.025568845 0.0015533448 0.036397 -0.16322376 -0.0077 -0.00069087517 -0.17599437 0.018848555 0.025878292 0.29565847
2189 0.007681514 -0.1264162 0.00967222 0.22460145 0.0741929 -0.10685241 0.051346283 0.14086829 -0.1335146 0.2468486 0.009081547 0.06392799 -0.091515936 -0.1822219 -0.05004737 0.0058252313 0.17091008 0.13104491 -0.25411156 0.003149559 0.19895422 0.20598806 0.031232957 -0.0069362144 0.15896782 -0.048098333 0.26976973 -0.022801742 -0.23709282 -0.2536245 -0.17084455 -0.054304056 0.19737184 -0.14094149 -0.12013915 -0.083808385 0.17021666 -0.25817177 -0.031103462 -0.035357162 -0.06795717 0.04423756 0.08206221 -0.10069072 0.1870625 0.07320778 -0.08131201 0.07984865 -0.017186258 0.25339288
4167 -0.08895862 0.003543494 0.0608663 0.1310526 0.14657424 -0.20918976 0.12841408 0.21399945 -0.2085778 -0.03689349 -0.022493586 -0.13899517 -0.057623785 0.21178012 0.006799608 0.10980571 0.035668105 0.22711 -0.17957081 -0.11059822 0.16897136 6.338417e-05 0.1809683 -0.31347606 0.43457422 -0.014135613 -0.08659185 0.028723788 -0.234186 -0.041676972 -0.0161683 -0.059274018 0.080475904 -0.15327452 -0.06213603 -0.029689787 0.22953954 0.06547499 0.08303748 0.0038122672 0.13896114 -0.037644833 -0.089301944 0.039597247 0.10585138 0.043692365 -0.13967304 0.032645162 0.07824227 0.1881262
4172 -0.068672374 -0.06384937 0.07395104 0.1553546 0.13054217 -0.18941104 0.101867944 0.19399627 -0.21516573 -0.0065303803 -0.037449725 -0.14145295 -0.055671263 0.2226674 -0.017227145 0.103561565 0.02527108 0.23492715 -0.15516648 -0.11286859 0.17279808 -0.026552157 0.13772398 -0.3001835 0.43340883 -0.04829556 -0.0788158 0.04234303 -0.24684185 -0.039166175 -0.039704997 -0.08034812 0.06946312 -0.17441174 -0.09731743 -0.023831284 0.26193866 0.019184766 0.087318435 -0.0033503624 0.12623484 -0.023149386 -0.05514975 0.024218563 0.09320744 0.026849512 -0.15461713 0.07387951 0.06913824 0.20665284
4169 -0.04648232 -0.06490763 0.08456747 0.1549056 0.140547 -0.18994269 0.08370733 0.20029812 -0.20863435 -0.00608927 -0.034952134 -0.116479985 -0.07419646 0.23053789 -0.003767553 0.09588464 0.036858846 0.23642245 -0.1575896 -0.12562087 0.17770657 -0.026607895 0.14751737 -0.31891927 0.43757647 -0.07359651 -0.07784347 0.05209746 -0.23184375 -0.038383186 -0.043145705 -0.10383152 0.05587703 -0.16168629 -0.08399631 -0.048392188 0.23008414 0.015201966 0.1043752 -0.0027046686 0.11573764 -0.011898558 -0.06153043 0.037640583 0.10306454 0.043879267 -0.14368334 0.05493261 0.046879213 0.21509649
4217 -0.029808983 -0.06189985 0.084662825 0.15721516 0.14029399 -0.168354 0.1014357 0.19618683 -0.20053641 0.0052067447 -0.044998683 -0.12560807 -0.0795558 0.23850152 -0.016565645 0.098357126 0.037616067 0.23995587 -0.15776478 -0.11681529 0.16888101 -0.027049135 0.15434197 -0.30609033 0.43742856 -0.066823155 -0.07219979 0.032040443 -0.2279714 -0.03575457 -0.057572704 -0.083714746 0.06882479 -0.17788613 -0.090821795 -0.030053917 0.2449925 0.015851941 0.09598318 -0.026142547 0.12259339 -0.0067704576 -0.07386819 0.024092449 0.09908344 0.0391263 -0.14595094 0.07037121 0.037902985 0.22275491
4163 -0.06082783 -0.07913891 0.06926085 0.15228918 0.13213135 -0.20338312 0.09514194 0.20855361 -0.19994888 -0.0012943725 -0.05017051 -0.13507833 -0.078444496 0.20582609 -0.02432916 0.09938573 0.025684549 0.2423783 -0.15093866 -0.11761825 0.15069495 -0.0061881114 0.1387234 -0.30300057 0.44346732 -0.06825477 -0.0674605 0.03770887 -0.24602585 -0.0505029 -0.04164628 -0.09021447 0.076385 -0.17080493 -0.08317888 -0.039262738 0.23006843 0.03717281 0.095028654 -0.011538704 0.11574783 -0.014362092 -0.06732721 0.03135645 0.092379905 0.038498577 -0.14900488 0.072244726 0.058778025 0.23219758
2217 0.03927379 0.030546924 -0.11831283 0.14895931 -0.021882214 -0.08156552 0.10498624 0.18483171 -0.13375261 0.13900639 0.005186056 -0.115683645 -0.06201628 -0.23939604 0.019666513 0.027519543 0.24937631 0.17991456 -0.29975247 -0.016272146 0.1175078 0.13134544 0.0848939 -0.0021105178 0.13458556 0.028230654 0.26249126 0.025832932 -0.2448337 -0.22562388 -0.13544905 0.041837003 0.19546367 -0.0626723 -0.21260007 -0.014927022 0.24597749 -0.2756327 -0.04861779 -0.011598644 -0.12571329 0.111261345 -0.01934666 -0.11280158 0.1720218 0.21960811 -0.036756713 -0.029091068 -0.048460748 0.059572924
4156 -0.08480347 -0.0072226827 0.07437615 0.152091 0.137143 -0.22415976 0.10841997 0.19498989 -0.20720439 -0.030255422 -0.015085169 -0.1301687 -0.08022416 0.22827081 -0.01610907 0.101632416 0.031263217 0.2273583 -0.17208663 -0.09549095 0.17588864 0.0062651616 0.17345385 -0.31256303 0.4449828 -0.029584633 -0.061965473 0.008741243 -0.22916815 -0.042591278 -0.030706033 -0.065231115 0.074905 -0.1487405 -0.08161604 -0.031149872 0.22644444 0.05490066 0.10062354 -0.018986788 0.14668691 -0.040081605 -0.07537309 0.039910886 0.10075233 0.05389176 -0.12547727 0.03166857 0.06071413 0.19643956
3921 -0.082335524 -0.03810476 0.072377004 0.14836435 0.11870803 -0.2265039 0.08774753 0.17309311 -0.19313423 -0.0021091793 0.0025689832 -0.13161568 -0.079960205 0.21825041 -0.045913633 0.09498343 0.023918362 0.2320003 -0.1307157 -0.11402151 0.14496908 -0.013619657 0.16405763 -0.34029227 0.4428819 -0.033963457 -0.09105529 0.022928994 -0.25222048 -0.035001054 -0.08180579 -0.03590945 0.06306701 -0.13561669 -0.11253235 0.009103559 0.22731799 0.025331603 0.10655135 -0.028935542 0.1408083 0.004277211 -0.07712795 0.026578164 0.087310016 0.074385345 -0.15788223 0.034304593 0.068631984 0.21034004
3894 -0.043227363 -0.0547695 0.07164343 0.13350008 0.1412565 -0.19624093 0.08916606 0.2083425 -0.20015481 -0.014433195 -0.043912772 -0.12498464 -0.07911774 0.22217314 -0.018152654 0.10187542 0.038146846 0.23545642 -0.16650027 -0.11347756 0.16677783 -0.00969471 0.1517045 -0.30651873 0.45238727 -0.062447283 -0.07214447 0.05026671 -0.23483057 -0.042892694 -0.041280046 -0.097493604 0.0681633 -0.16247368 -0.083628215 -0.0454491 0.234792 0.025508652 0.10516087 -0.015144764 0.10944581 -0.017985297 -0.06011915 0.03558738 0.097333565 0.03315713 -0.1429882 0.06562981 0.06634348 0.21743183
4171 -0.04617853 -0.03801415 0.06700457 0.14236456 0.1301244 -0.19126453 0.10659955 0.20255078 -0.19387016 -0.009309429 -0.05185712 -0.14106002 -0.062519565 0.25301203 -0.016077325 0.10206668 0.029357357 0.24288154 -0.1721125 -0.09773363 0.16054766 -0.039101314 0.15470678 -0.33014554 0.428731 -0.07117714 -0.05705188 0.03755998 -0.2372447 -0.031813834 -0.025084514 -0.09493831 0.0671195 -0.17584547 -0.09204509 -0.047883432 0.22078054 0.025192618 0.087123916 -0.012045844 0.102927655 -0.007947092 -0.04566749 0.0019066932 0.0952793 0.04471575 -0.14324877 0.081638746 0.06966076 0.21906331
3998 -0.05268406 -0.04479113 0.08835589 0.14872232 0.113990255 -0.2054853 0.07947933 0.1596624 -0.19184886 0.005091093 0.0062665814 -0.13745838 -0.09465463 0.22054775 -0.07712948 0.066171415 0.0061234036 0.2496512 -0.14037408 -0.09109659 0.15124469 -0.02716608 0.13685457 -0.31603426 0.4452927 -0.039983846 -0.11108999 0.030186126 -0.24533439 -0.06362527 -0.09195957 -0.05738606 0.06995375 -0.14630167 -0.11739024 -0.0030111598 0.24416573 0.021856321 0.10246462 -0.038819537 0.17297512 0.027112048 -0.082505055 0.020707551 0.09181434 0.05232507 -0.16418675 0.046064373 0.06658762 0.1951964
3981 0.08928892 -0.3207783 0.16876303 0.19703387 0.048500597 -0.054947503 0.12040587 -0.044397026 -0.05816462 0.08643322 -0.08068075 -0.05437178 0.022546275 0.1390537 -0.09731175 0.085728094 0.03773863 0.09779018 -0.2716204 -0.13327195 0.095480524 0.029977595 0.16761082 -0.105907805 0.2723424 -0.13896143 0.046885543 0.1103607 -0.2276178 0.0063522668 -0.06066641 -0.1618692 -0.023102071 -0.12855375 -0.114453614 -0.09693013 0.26860794 -0.09070694 0.05343144 0.124946415 -0.22138256 -0.060635343 0.06282321 -0.14438987 0.116646096 -0.01133748 -0.14521337 0.059066713 0.06366243 0.3785706
3952 0.073144495 -0.31980753 0.17248346 0.21208422 0.047265846 -0.047063645 0.10955668 -0.033598173 -0.07969771 0.07137362 -0.079509966 -0.04860431 0.028384533 0.13664636 -0.08687506 0.08729693 0.03040528 0.08112627 -0.25753292 -0.15463997 0.09518006 0.024880642 0.16623868 -0.097168796 0.2721361 -0.1467262 0.041309997 0.11601384 -0.23807617 0.021779383 -0.04833897 -0.17565702 -0.03293759 -0.13123657 -0.09099699 -0.08450226 0.2616792 -0.07484068 0.055613674 0.1159707 -0.22995485 -0.09313407 0.06303476 -0.13503532 0.11085074 -0.02507818 -0.14673106 0.05181783 0.069109485 0.38687438
3976 0.07874499 -0.30760628 0.15963104 0.19822268 0.035647992 -0.06507926 0.11185094 -0.039238606 -0.075561 0.06327108 -0.08721292 -0.05902242 0.0335698 0.15373854 -0.103835054 0.08585341 0.027791888 0.09021734 -0.27231765 -0.12637493 0.09733905 0.026958233 0.17029175 -0.10554435 0.2748492 -0.14487985 0.052138574 0.12540784 -0.22807233 0.02176502 -0.051927578 -0.16745487 -0.03963365 -0.13344412 -0.11376178 -0.10817407 0.26001012 -0.0770913 0.057043824 0.11738119 -0.22522938 -0.08332745 0.074295804 -0.15138496 0.10395419 -0.022042524 -0.15006106 0.057131138 0.08028958 0.3732445
3895 -0.06461819 -0.044393923 0.08808825 0.15290278 0.11467372 -0.21569997 0.08568057 0.18137532 -0.19634393 -0.016636008 -0.010129284 -0.13671573 -0.09778629 0.21205144 -0.04880787 0.07956796 0.023714209 0.2296084 -0.13214336 -0.09977211 0.1511233 -0.039406482 0.15435423 -0.32611984 0.4530147 -0.04500184 -0.09652524 0.031418703 -0.24730265 -0.04281552 -0.075624175 -0.050959285 0.06522466 -0.13578191 -0.10765412 0.017207988 0.23681438 0.020726588 0.11766896 -0.050182614 0.14906706 -0.008177511 -0.06774031 0.020242307 0.08926308 0.07427501 -0.15462723 0.0426286 0.06417672 0.19935156
3933 -0.06638543 -0.036037974 0.085652456 0.13985847 0.11113819 -0.2196318 0.074542105 0.18383408 -0.18370174 -0.01829884 -0.018653044 -0.13663553 -0.08722755 0.22230725 -0.039401095 0.0922154 0.021959787 0.24646892 -0.13486695 -0.11650082 0.15510055 -0.02036772 0.16494575 -0.3323529 0.4415519 -0.029551908 -0.08645904 0.032817386 -0.24814746 -0.039289612 -0.084695645 -0.030730672 0.061953995 -0.14259051 -0.11262076 0.003291938 0.25228217 0.034364708 0.08274315 -0.030895978 0.14681648 0.010016786 -0.063246876 0.019555876 0.08171578 0.062248375 -0.15274844 0.048288133 0.06643139 0.20088074
4020 -0.07746211 -0.013864371 0.06262798 0.1499051 0.1227732 -0.21394114 0.09096632 0.20908612 -0.19222097 -0.020223096 -0.0061471974 -0.1410381 -0.08663729 0.21460347 -0.042777125 0.087396376 0.008512039 0.22658429 -0.13088576 -0.08297491 0.15614425 -0.042243406 0.16082196 -0.3507965 0.43142048 -0.028301701 -0.08062304 0.028213177 -0.2705928 -0.0214445 -0.042968843 -0.029344765 0.06771916 -0.12751013 -0.10181023 0.004678623 0.23233378 0.0420256 0.081438646 -0.04126828 0.13615058 -0.0035577063 -0.05394461 -0.0030665146 0.10333744 0.06851723 -0.15147805 0.06510624 0.09465488 0.21175036
4013 -0.07787114 -0.021850001 0.068372205 0.14903677 0.12064521 -0.21977554 0.08174437 0.17530264 -0.19751093 -0.008434293 -0.00066470535 -0.13068525 -0.08239245 0.21955904 -0.064723514 0.09178672 0.016997928 0.2307304 -0.13465753 -0.08424551 0.15210396 -0.026728103 0.14481016 -0.33425674 0.4506653 -0.029268175 -0.07849789 0.021180447 -0.2512628 -0.039080344 -0.06828867 -0.037226576 0.07359721 -0.14236668 -0.12290064 -0.004365789 0.23038127 0.018760229 0.11215439 -0.043284506 0.15281776 -0.009690093 -0.07073805 0.002747075 0.08690241 0.06756147 -0.15718165 0.057669204 0.08657232 0.20288946
3897 -0.06352536 -0.03846951 0.09015992 0.15305516 0.11701673 -0.19781278 0.06975292 0.17880212 -0.190958 -0.020775158 0.0076986277 -0.1384455 -0.09289509 0.19613305 -0.05459938 0.08318908 0.014914744 0.24140146 -0.11443577 -0.11765655 0.14835918 -0.043062773 0.15460849 -0.3304749 0.43905702 -0.022752479 -0.10729505 0.026500445 -0.26715454 -0.036864195 -0.078639455 -0.038455777 0.06401156 -0.14862713 -0.10275685 0.019688059 0.25290793 0.039661158 0.09618922 -0.04352581 0.15430023 0.023033286 -0.0757448 0.028336579 0.09412432 0.065528505 -0.15969177 0.056331344 0.067553066 0.20185952
3967 -0.055473484 -0.049083326 0.07751243 0.14512716 0.11462661 -0.21447906 0.07411964 0.21129484 -0.17700045 -0.005033873 -0.014465541 -0.14478184 -0.07706228 0.23299778 -0.06911911 0.1080295 0.0256577 0.24056578 -0.114418186 -0.113108315 0.12862648 -0.022895047 0.15321426 -0.34196004 0.42601326 -0.021396624 -0.08000442 0.040809445 -0.26640788 -0.040122636 -0.07743313 -0.030425323 0.07241515 -0.15607391 -0.11758988 -0.010604222 0.22293888 0.040111747 0.08496426 -0.034685962 0.15016772 0.009294947 -0.07367407 0.018240118 0.08502248 0.07010475 -0.1425005 0.06336143 0.08870447 0.20382942
3961 -0.08356331 -0.02908889 0.059177354 0.15814953 0.100245096 -0.21983929 0.07253359 0.18382627 -0.195903 -0.006231371 -0.019235544 -0.14018297 -0.084416315 0.20949946 -0.062355433 0.097770534 -0.00028178951 0.24265325 -0.113005996 -0.09902807 0.12645784 -0.0239779 0.14845045 -0.33280095 0.4424856 -0.037192233 -0.071408525 0.021558303 -0.26521876 -0.03270639 -0.072747745 -0.023148488 0.056717608 -0.14291705 -0.12520358 -0.0012431678 0.24272016 0.035078947 0.10484697 -0.044285472 0.1276129 0.013816779 -0.06701153 -0.0028662821 0.08840808 0.07047243 -0.15916164 0.063344195 0.07861041 0.22545083
3994 -0.059238948 -0.014305085 0.07037617 0.14323615 0.12317731 -0.21687008 0.063146934 0.18279567 -0.19285671 -0.033990808 -0.00657433 -0.12986335 -0.10250211 0.212179 -0.06729499 0.09185972 -0.009549397 0.22831182 -0.11628923 -0.09282648 0.13997544 -0.034652118 0.13870066 -0.3353913 0.45778084 -0.035678882 -0.07681721 0.019608645 -0.25772855 -0.037376493 -0.06845408 -0.014401163 0.080222495 -0.12812714 -0.12352421 0.006923592 0.2262443 0.0276847 0.10082432 -0.06531688 0.13524917 0.015110465 -0.07657488 0.0030744614 0.09951485 0.0658173 -0.16310373 0.07830637 0.08765197 0.21715671
3992 -0.07635671 -0.027157206 0.072929375 0.15715574 0.09055215 -0.22221333 0.07569775 0.20214069 -0.19551796 -0.006363416 -0.025427505 -0.14047702 -0.076477855 0.22675686 -0.057406217 0.09908582 0.022181492 0.23543969 -0.11515108 -0.093884796 0.12646572 -0.03564581 0.15129514 -0.33183604 0.43644682 -0.038027786 -0.07568144 0.020896694 -0.25407612 -0.018200189 -0.07024419 -0.030564396 0.06465003 -0.15164566 -0.12600343 0.009913765 0.23832038 0.03217687 0.098979294 -0.05256916 0.14728922 -0.0026479084 -0.06780536 -0.0017205632 0.09080223 0.07833523 -0.15768455 0.06309323 0.07489306 0.21075583
3839 0.011104909 0.010140145 -0.0039094714 0.04412995 0.061484832 -0.12872867 0.05812013 0.06448239 -0.19729656 -0.15307389 -0.13372232 -0.17156878 -0.012015455 0.25764167 0.11667236 0.16582426 0.09894074 0.24912782 -0.2922094 -0.15337124 0.081229866 -0.038030766 0.13926406 -0.17746839 0.3931192 -0.10212488 -0.10710484 0.16445461 -0.14889196 -0.04068706 0.05887074 -0.19338526 -0.0102740675 -0.12388623 -0.06716581 0.007703738 0.29614 0.019277964 0.1693166 0.10088848 -0.04824249 0.032867998 -0.1215214 -0.01463763 0.05705041 0.0032800452 -0.18619648 0.046291795 0.103277974 0.16931248
4011 -0.07575232 -0.037828133 0.07241036 0.14443511 0.115317956 -0.20990458 0.067534655 0.17552494 -0.19838183 -0.0152088655 -0.0034352804 -0.13802662 -0.08996493 0.22232135 -0.063244775 0.08572093 0.023889648 0.2431753 -0.12806128 -0.10184901 0.15022571 -0.017596204 0.1417941 -0.33330584 0.45280555 -0.036204573 -0.08972266 0.049288087 -0.25505957 -0.06168032 -0.08154999 -0.04481429 0.059719842 -0.14413142 -0.11714766 -0.0046720766 0.22978196 0.0316182 0.11299209 -0.031275403 0.14493586 0.00061576697 -0.07962067 0.021701012 0.08414142 0.075789884 -0.14325179 0.0434369 0.077453785 0.19210844
3953 0.052662656 -0.19977146 0.09338696 0.10822032 0.053240795 -0.11923522 0.1368429 0.07877606 -0.19394557 0.045196474 0.023900578 -0.08465434 0.13038185 0.306317 -0.042202137 0.26268846 0.109731965 0.076835856 -0.15946348 -0.15100937 0.07746412 0.008541212 0.024836952 -0.07598698 0.21021196 -0.0960031 -0.04141946 0.18394592 -0.21958305 0.040746912 -0.07495317 -0.06001963 0.018040648 -0.15023781 -0.09848444 -0.0012420911 0.3905875 -0.18293627 0.1918649 0.13450438 -0.14084235 0.05120245 -0.0681 -0.044724513 0.1561758 -0.009398703 -0.16658987 0.11939479 0.12727511 0.23213652
3990 0.04152474 -0.18875112 0.09486321 0.10519061 0.07454574 -0.1037228 0.14411871 0.10519569 -0.1804766 0.056041397 0.045934565 -0.071519345 0.13101408 0.30213562 -0.035483617 0.2573195 0.12729189 0.06489761 -0.16156922 -0.1520515 0.07992977 0.012167381 0.04661435 -0.08311889 0.20726554 -0.091445036 -0.038915772 0.17429376 -0.22670056 0.05796866 -0.07552592 -0.042122908 0.008212145 -0.14816634 -0.08518722 0.0104320925 0.40523538 -0.16916962 0.17936029 0.14844133 -0.14026049 0.056346945 -0.06311418 -0.055669665 0.15868479 -0.022532888 -0.14858116 0.11230683 0.122444436 0.25128153
3901 0.05003164 -0.19648057 0.10209283 0.109784156 0.06748269 -0.08181503 0.16945489 0.059657354 -0.16854227 0.06331833 0.034476787 -0.091679305 0.14335231 0.30120203 -0.03437597 0.24671863 0.12776007 0.06398463 -0.17743318 -0.15498963 0.08286446 0.004447457 0.025145156 -0.06751383 0.18988834 -0.09286198 -0.055931155 0.16299011 -0.22185723 0.0459574 -0.083433285 -0.04307889 0.009897858 -0.14806224 -0.089734636 0.028654216 0.42251182 -0.18298279 0.16597925 0.14002077 -0.12687017 0.057968155 -0.08473829 -0.0728373 0.15553445 -0.014076189 -0.16142313 0.100871794 0.12151389 0.2401294
3908 0.05325882 -0.19130678 0.103842564 0.091841 0.06953795 -0.102456994 0.16113326 0.06931213 -0.1691896 0.052262846 0.036979683 -0.081163235 0.1340357 0.29477972 -0.028540507 0.26507205 0.1251861 0.063812524 -0.17722684 -0.15968627 0.07812616 0.0071757548 0.03985444 -0.07097492 0.18918432 -0.08671061 -0.06256064 0.16593866 -0.22278272 0.043939702 -0.08374927 -0.03329501 0.015318435 -0.14276013 -0.08376495 0.016080117 0.4160697 -0.19137616 0.18219484 0.14634481 -0.14144458 0.06171689 -0.07501073 -0.061918847 0.16253997 -0.014776112 -0.16089973 0.10090028 0.12687095 0.22759163
3993 -0.067682326 -0.033572737 0.076206364 0.13627742 0.12525058 -0.22328568 0.08377248 0.18685885 -0.18187204 -0.004313824 -0.0073956274 -0.12494514 -0.09936079 0.20240018 -0.040386286 0.10225058 0.014407804 0.24547575 -0.12344967 -0.11378749 0.15706147 -0.023611879 0.16233537 -0.3373391 0.43857774 -0.021873388 -0.100994825 0.002291064 -0.26277825 -0.048093565 -0.08291181 -0.010662233 0.07944557 -0.1433451 -0.096348315 0.009315989 0.22549656 0.038096573 0.09296412 -0.041606314 0.13857763 0.023696441 -0.06828278 0.022537595 0.09087217 0.060549688 -0.16027255 0.05858179 0.07418878 0.21200335
4000 0.049054436 -0.17376527 0.096942894 0.09622157 0.07100101 -0.10533203 0.13908556 0.09808688 -0.17679569 0.054207947 0.041172296 -0.09251582 0.12296905 0.28760728 -0.03995861 0.2530979 0.1402256 0.048784345 -0.17067286 -0.14528674 0.089018114 0.005473624 0.0062172394 -0.07669589 0.19454692 -0.108675614 -0.044784047 0.18725097 -0.22510861 0.036915317 -0.069383964 -0.023813207 0.020555837 -0.1377854 -0.10208028 0.023682 0.42750126 -0.2016061 0.19259797 0.13872376 -0.14141555 0.050579946 -0.0579008 -0.06078427 0.16410132 -0.004766453 -0.15944675 0.12133599 0.12864384 0.20497783
3912 0.06568236 -0.17959425 0.08209203 0.08216558 0.080849215 -0.09124746 0.1607656 0.0950424 -0.18724933 0.058943275 0.039213043 -0.08592804 0.13671175 0.30634505 -0.023853686 0.26823497 0.1354868 0.06005132 -0.17690903 -0.16519748 0.08022224 0.017994821 0.032474343 -0.08014177 0.20595476 -0.08659116 -0.049367603 0.1785937 -0.21728502 0.032711416 -0.08309112 -0.027030218 0.03156108 -0.14947183 -0.08555313 0.00078365824 0.40362307 -0.18070766 0.17613733 0.13437106 -0.1465592 0.0657031 -0.08137686 -0.040204782 0.15867737 -0.017762292 -0.14994602 0.11718287 0.12328335 0.21560441
3907 0.050810106 -0.20322426 0.10210977 0.09190948 0.056670357 -0.12040294 0.13312683 0.08967875 -0.17686386 0.05626801 0.051096518 -0.06776386 0.13266937 0.29409087 -0.046682194 0.25637442 0.10788309 0.06284513 -0.15132317 -0.16657934 0.08759935 0.014551287 0.019098366 -0.070007995 0.20490322 -0.094995126 -0.03693956 0.17388585 -0.2339301 0.04944557 -0.07727137 -0.040933605 0.00943766 -0.13771118 -0.08511995 0.022161612 0.41337332 -0.18563968 0.19187504 0.13994142 -0.14670259 0.05868721 -0.061408587 -0.033181436 0.15809955 -0.029448709 -0.15870166 0.1284838 0.12300793 0.22859803
4017 0.043004885 -0.19750099 0.09386545 0.1020045 0.10146667 -0.09645678 0.16849013 0.08075415 -0.17060216 0.057845097 0.038316764 -0.07326797 0.14018722 0.30533355 -0.02396689 0.24805182 0.12504198 0.050418504 -0.19096345 -0.1581548 0.10085138 0.039379176 0.031858567 -0.08318298 0.1959778 -0.102505624 -0.04207273 0.17563921 -0.22174501 0.030643692 -0.08690138 -0.022076558 0.029921658 -0.1439775 -0.086559966 -0.00095649465 0.40410843 -0.17897028 0.15574858 0.148018 -0.14597768 0.03657618 -0.064462185 -0.049200274 0.14848952 -0.019512897 -0.15730278 0.102873206 0.12930001 0.24048163
3975 0.05317034 -0.20025401 0.11302831 0.087364994 0.06472789 -0.0950707 0.16380575 0.09449829 -0.16880606 0.066550225 0.062195912 -0.07762882 0.14042336 0.303461 -0.0435234 0.23424545 0.13672468 0.04118163 -0.18095823 -0.15350549 0.11150876 0.028001333 0.034488313 -0.07137306 0.19881134 -0.099126376 -0.048463866 0.17126323 -0.2215417 0.04594893 -0.08317821 -0.041650657 0.008565901 -0.12979072 -0.086367086 0.013344481 0.4170121 -0.1858297 0.18897387 0.13902234 -0.15052961 0.03904059 -0.0578946 -0.037225343 0.15477349 -0.030072551 -0.14917652 0.10902874 0.1208312 0.22057961
3919 0.043671325 -0.20128106 0.10449244 0.08905945 0.055097114 -0.1022926 0.13910893 0.10687252 -0.18143564 0.054541275 0.055642094 -0.07736397 0.1346371 0.31191456 -0.04222267 0.23553112 0.13259704 0.068547815 -0.15675825 -0.17346273 0.10307211 0.006901031 0.04334146 -0.09836266 0.21852818 -0.103769295 -0.04758679 0.18477966 -0.221442 0.06245065 -0.09030166 -0.047372364 -0.003498084 -0.14396131 -0.09830987 0.005836902 0.3939588 -0.17946996 0.19144419 0.13632064 -0.14943011 0.055774093 -0.047935564 -0.03676674 0.1367391 -0.023842528 -0.14482132 0.12017825 0.10778973 0.22560501
3968 0.062792666 -0.20428233 0.11632113 0.103186 0.065722294 -0.094952494 0.15295358 0.06793508 -0.16864407 0.06585898 0.0617353 -0.07975261 0.1382547 0.3000955 -0.060238797 0.23324701 0.11598446 0.055442225 -0.17392503 -0.16276482 0.10294623 0.013988397 0.036883783 -0.06852849 0.20698833 -0.09146184 -0.057521492 0.17400959 -0.2229771 0.056478634 -0.085335985 -0.052103747 0.018924272 -0.1437357 -0.096534826 0.011801149 0.41419348 -0.18886465 0.17076221 0.13793074 -0.14369589 0.05107322 -0.055757027 -0.04691278 0.15065618 -0.0349829 -0.15365438 0.10624405 0.11602882 0.23257545
3948 0.057469293 -0.18386242 0.096443914 0.08848571 0.08938541 -0.0888509 0.14284009 0.08857937 -0.16881046 0.062181585 0.04843436 -0.071838155 0.122816 0.29808292 -0.036213905 0.2559585 0.13482922 0.028036535 -0.16638038 -0.15717605 0.0714034 0.031817466 0.02229465 -0.058479983 0.2051174 -0.10513866 -0.045224275 0.18213241 -0.21286832 0.032255262 -0.106060416 -0.013674444 0.025019057 -0.14476646 -0.10586818 0.02381063 0.41815576 -0.19800408 0.18737485 0.12893085 -0.13636409 0.060180392 -0.07449437 -0.05447634 0.16312519 -0.015797563 -0.16046569 0.10736485 0.121028095 0.23411918
3904 0.055273563 -0.18979403 0.09441174 0.078276165 0.08137007 -0.11415995 0.14813767 0.1145752 -0.1655522 0.047844358 0.05428903 -0.07974653 0.1377013 0.31530312 -0.029824555 0.25352532 0.14782861 0.040539276 -0.18613817 -0.16357207 0.07051192 0.03343495 0.040464085 -0.06705308 0.19779606 -0.08810892 -0.050894335 0.19665828 -0.21294749 0.048755836 -0.100913115 -0.026711136 0.011728563 -0.14535686 -0.098880105 0.023365235 0.39781538 -0.18134063 0.18206823 0.16150169 -0.14268056 0.062368225 -0.08770092 -0.025548413 0.15318091 -0.008061164 -0.14051373 0.09893287 0.11210146 0.21102948
4004 0.054672327 -0.19658887 0.101577334 0.103556156 0.03974696 -0.1070524 0.14306448 0.09624086 -0.18151395 0.053997632 0.052026972 -0.08716642 0.1444593 0.30591476 -0.056281347 0.24537773 0.12011543 0.069511145 -0.15492116 -0.15307593 0.098660834 0.0010080585 0.023302313 -0.07838444 0.20456342 -0.09619101 -0.04161863 0.17502207 -0.22882798 0.05194043 -0.073405825 -0.057890333 0.009304909 -0.14859249 -0.0878054 0.0116625745 0.40655416 -0.18313958 0.1861635 0.12993978 -0.14354517 0.055615272 -0.048951536 -0.04993388 0.14909907 -0.026983032 -0.15280853 0.13043 0.12887748 0.22644642
3966 0.04860792 -0.19960983 0.11155434 0.09891782 0.051743172 -0.120820865 0.13630338 0.101598114 -0.1759236 0.06359986 0.0447407 -0.07369525 0.13433653 0.2979671 -0.052532412 0.25794905 0.14033611 0.06471361 -0.1434394 -0.16122648 0.09421264 0.027139867 0.029146342 -0.07892056 0.20040426 -0.08926796 -0.051157236 0.17583627 -0.22328182 0.042315867 -0.097230785 -0.029451799 0.019240094 -0.15225849 -0.07877857 0.00013997903 0.4154673 -0.17786266 0.19467223 0.14319715 -0.13736959 0.041158177 -0.06841981 -0.02270478 0.1458023 -0.024099996 -0.14229997 0.110628106 0.12266902 0.22915846
3940 0.060192157 -0.18710846 0.101781495 0.09190796 0.06334361 -0.10881498 0.1386922 0.09074402 -0.17962474 0.035420205 0.05762886 -0.0926929 0.13739966 0.3077131 -0.057437185 0.26468074 0.12188399 0.04055087 -0.15908892 -0.15162814 0.07121037 0.011275102 0.024076186 -0.07092897 0.2008075 -0.089632094 -0.05458392 0.20096636 -0.22908768 0.052274797 -0.07118969 -0.030210383 0.016063277 -0.13125965 -0.08624817 0.011458908 0.4094942 -0.1769231 0.19059278 0.13372871 -0.15160152 0.045396686 -0.0658015 -0.04797087 0.15580769 -0.023434935 -0.14436328 0.11850965 0.1406093 0.22123806
4205 -0.10969853 0.008490449 0.07358994 0.16471326 0.11849364 -0.24684818 0.067904666 0.20861427 -0.18344319 -0.032754898 0.019139117 -0.13179865 -0.095915794 0.21354085 -0.0672934 0.06835678 0.0007432758 0.20393638 -0.10942027 -0.08330921 0.15081234 0.00612529 0.15465946 -0.3471302 0.42609942 -0.016626026 -0.083648704 -0.015692968 -0.26210117 -0.028314289 -0.085228056 0.021200178 0.08366691 -0.12742963 -0.10286438 0.022886194 0.22590455 0.05350032 0.08318062 -0.07561817 0.17986134 -0.025737338 -0.07625788 0.03157582 0.09642539 0.08121181 -0.13658623 0.052767653 0.07744205 0.19429903
3988 0.068062305 -0.20308898 0.09610373 0.0754292 0.0752141 -0.08191801 0.1756593 0.07296398 -0.18458696 0.0842511 0.0469966 -0.06928031 0.12731381 0.2807152 -0.047539987 0.25265056 0.124205485 0.07066662 -0.17314592 -0.1601762 0.095986076 0.014776753 0.036071595 -0.060776338 0.21413969 -0.08623529 -0.0691771 0.17303151 -0.22485647 0.03753746 -0.09083423 -0.028337514 0.029236289 -0.15982902 -0.07943042 0.0009636578 0.39839044 -0.17444448 0.18243246 0.14373207 -0.13843845 0.07125276 -0.08210929 -0.05576168 0.16071667 -0.044136725 -0.15480146 0.11429602 0.12684618 0.2259617
3939 0.06480517 -0.20124699 0.11009196 0.10146953 0.07782107 -0.09691 0.13494842 0.09114335 -0.17080848 0.056093134 0.04883381 -0.07300989 0.121363066 0.30321404 -0.04701244 0.25089827 0.133024 0.052846666 -0.17801411 -0.16175178 0.078246556 0.018991139 0.029073853 -0.07332079 0.2070621 -0.09274649 -0.038779162 0.18104967 -0.2254271 0.041632887 -0.077214934 -0.05858038 0.017795308 -0.15223515 -0.0894598 0.013479116 0.395134 -0.19264664 0.19712731 0.13716123 -0.13543457 0.051957946 -0.07356226 -0.054988403 0.16441113 -0.019533074 -0.14136927 0.1191165 0.12811372 0.22412863
3971 0.042826757 -0.19252488 0.10686182 0.09623871 0.04604089 -0.11144698 0.13319623 0.0891337 -0.18671803 0.056401134 0.033688847 -0.060946994 0.13159229 0.29788437 -0.02893191 0.25279933 0.1289706 0.075526565 -0.15270266 -0.17814529 0.08528081 0.023696411 0.02855048 -0.08568566 0.21140884 -0.09424284 -0.041639954 0.16718464 -0.22798198 0.04522649 -0.0861192 -0.037590623 -0.0034759606 -0.12829113 -0.07609706 0.016442556 0.41620284 -0.18591748 0.20302774 0.13579923 -0.1485934 0.072331354 -0.07742492 -0.02730124 0.16042382 -0.004320602 -0.14942318 0.106316626 0.11869284 0.2224857
3928 0.05750682 -0.21121018 0.118764535 0.10887331 0.06919232 -0.105744466 0.1513963 0.06745475 -0.16767545 0.074106365 0.020243648 -0.07112666 0.12118577 0.30171695 -0.043825883 0.23459433 0.114207946 0.060554504 -0.17793769 -0.15930612 0.08856854 0.018519487 0.009755351 -0.07626905 0.20575763 -0.11221126 -0.046676733 0.14582093 -0.22090092 0.030645523 -0.07734333 -0.03792917 0.028074326 -0.15421596 -0.08877407 0.016815566 0.4149352 -0.18763968 0.18378614 0.124067925 -0.1362527 0.048245676 -0.06628116 -0.054462716 0.1524482 -0.024383614 -0.1659553 0.12170774 0.11820473 0.24466267
4157 -0.10613569 -0.001605092 0.0592443 0.1506851 0.13907677 -0.22761136 0.07825249 0.22395091 -0.1760928 -0.0179231 0.023515621 -0.1292533 -0.105371535 0.19442561 -0.06613132 0.05093109 0.0045156474 0.20223504 -0.13978676 -0.093426734 0.1438076 0.018378107 0.16941297 -0.3419654 0.44416082 -0.014231647 -0.08749639 0.00022976284 -0.2596662 -0.042798713 -0.086021364 0.009937764 0.07914284 -0.12319547 -0.08742802 0.013240238 0.23780112 0.06397773 0.06552187 -0.05719769 0.18072702 -0.016565252 -0.06667162 0.030791337 0.08940545 0.06299973 -0.123885565 0.03837424 0.07858194 0.20526345
4196 -0.09277228 0.011511998 0.068369925 0.15118997 0.13509107 -0.24760956 0.08940241 0.22534727 -0.16393077 -0.027274666 0.024343478 -0.15013032 -0.09955629 0.21738517 -0.065798186 0.06760277 -0.0009742475 0.20934246 -0.14367218 -0.08064287 0.14174633 0.01469296 0.1527556 -0.33321676 0.42840314 -0.017364724 -0.07496801 -0.021767026 -0.25570142 -0.04373449 -0.065915145 0.014971418 0.096553214 -0.13848224 -0.1098688 0.021960277 0.22080275 0.06865574 0.06551802 -0.060018722 0.18853909 -0.0113032255 -0.077612065 0.017170545 0.098807536 0.07061709 -0.12991431 0.058040924 0.08756438 0.18457913
3986 0.04998959 -0.2002856 0.11503211 0.105227545 0.072228774 -0.10934242 0.13233174 0.075993925 -0.1669201 0.042734746 0.031351175 -0.065794006 0.13924757 0.30306292 -0.024859114 0.26024616 0.13663848 0.05090403 -0.17412509 -0.16116753 0.09077327 0.036995232 0.03178706 -0.066912085 0.20204894 -0.09299661 -0.039228152 0.17853898 -0.22084413 0.03747695 -0.08959155 -0.038304694 0.0076802564 -0.14329869 -0.08567854 0.010210842 0.4168103 -0.18231435 0.18617758 0.13807224 -0.13879728 0.046876855 -0.06991236 -0.041862648 0.14548276 -0.018194923 -0.1627797 0.10195074 0.13306089 0.22338304
4185 -0.1006238 0.015927471 0.06948016 0.15200046 0.122166455 -0.23004642 0.08520596 0.22208656 -0.18190372 -0.024372615 0.033793077 -0.13106696 -0.10114125 0.22686705 -0.06505664 0.05575785 -0.000616075 0.1980388 -0.13425884 -0.076944254 0.13450418 -0.000805429 0.16085158 -0.34283826 0.44293433 -0.018633248 -0.081718855 -0.025776714 -0.2513773 -0.031993784 -0.08044352 -0.0026597816 0.0753257 -0.14883052 -0.122596174 0.016700793 0.20794141 0.05875883 0.089120135 -0.076404795 0.18856715 -0.008205597 -0.08547064 0.021718927 0.09165616 0.069646075 -0.130996 0.05701288 0.063708626 0.17957814
4173 -0.09748264 0.0074486113 0.06779731 0.15889402 0.14015596 -0.23056915 0.07725187 0.22408485 -0.18741336 -0.018110737 0.016203882 -0.13394815 -0.1093815 0.20497267 -0.07972975 0.06708794 0.011373914 0.19437121 -0.12554769 -0.078329824 0.13855451 -0.0013632419 0.1485374 -0.34204787 0.43120375 -0.03105173 -0.08339888 0.0016152048 -0.26985952 -0.026890121 -0.07726344 0.024233837 0.0924299 -0.12555274 -0.12659732 0.008752055 0.20714776 0.066204205 0.09503676 -0.06377007 0.16814685 -0.034473028 -0.086619556 0.018845279 0.0943868 0.07734316 -0.13263658 0.055822298 0.08762662 0.19922005
4211 -0.102298975 -0.0071583134 0.069108374 0.14903688 0.122249566 -0.2447586 0.07681736 0.21163976 -0.17683923 -0.02340846 0.03222491 -0.13007736 -0.10920268 0.2032109 -0.07775866 0.06193086 0.010430502 0.2182711 -0.127112 -0.09729785 0.14839791 0.00314822 0.15084414 -0.33351767 0.43371218 -0.0151442895 -0.08259141 -0.0062553505 -0.26301223 -0.0364665 -0.09943436 0.01906783 0.08254804 -0.13031384 -0.121238105 0.016735956 0.21596 0.06638742 0.08627856 -0.06020846 0.17943603 -0.0052139033 -0.07723889 0.0428524 0.0979791 0.076246046 -0.13381487 0.046104267 0.06462256 0.19541283
4193 -0.10774269 -0.00082358735 0.072798766 0.15817311 0.08712261 -0.24292931 0.060158458 0.2136945 -0.182603 -0.033247367 0.011863554 -0.1520137 -0.11265042 0.19358806 -0.073961645 0.048409104 0.004234979 0.21707915 -0.11117816 -0.10504012 0.13224033 -0.0023816677 0.15375523 -0.33847576 0.44109854 -0.01768916 -0.09053331 -0.0069268565 -0.25881672 -0.036004517 -0.08932863 0.010114599 0.06061988 -0.12579846 -0.11329256 0.019993298 0.23919603 0.05700702 0.100225635 -0.07122057 0.18838681 -0.008359968 -0.078310706 0.02920335 0.084130496 0.087025166 -0.13326596 0.04031458 0.061603025 0.17912821
3898 0.060834136 -0.18516086 0.09107773 0.08635688 0.09115772 -0.1015649 0.14781182 0.10060381 -0.17480305 0.05523803 0.046501253 -0.07807123 0.12285085 0.29554302 -0.03970246 0.26037055 0.14014882 0.061965164 -0.18540108 -0.15569969 0.08332994 0.034564592 0.022364825 -0.079911426 0.21958339 -0.09077922 -0.03984291 0.17016909 -0.22694066 0.037488423 -0.073856644 -0.03136228 0.03176605 -0.1397926 -0.08609303 0.007547179 0.40506542 -0.17688884 0.18918508 0.13799238 -0.14502394 0.05393686 -0.08459878 -0.03382011 0.15893196 -0.02043016 -0.12904274 0.10309953 0.12694404 0.24287735
4153 -0.100000314 -0.008435401 0.07077237 0.16166234 0.11645959 -0.2385149 0.07792329 0.21317971 -0.18144245 -0.01352703 0.02613274 -0.13976721 -0.1025901 0.21725608 -0.06849639 0.05308756 0.0027612152 0.2164842 -0.13732181 -0.08307585 0.14702326 0.00833869 0.15597631 -0.34274468 0.43515623 -0.020518688 -0.08505807 -0.00851875 -0.24793285 -0.044423226 -0.07933855 -0.013351088 0.07476482 -0.12980936 -0.11833619 0.013167553 0.22415042 0.043394685 0.084357426 -0.055901095 0.18775748 -0.017314497 -0.07942676 0.034879997 0.08752897 0.07863824 -0.13465299 0.044989035 0.054971274 0.18986043
4188 -0.09865428 -0.003046732 0.06770567 0.14893344 0.10985219 -0.23363528 0.09060591 0.23412961 -0.17572586 -0.025330964 0.027624141 -0.14634563 -0.10708291 0.18220885 -0.07033338 0.05620542 -0.014811736 0.20209411 -0.12129989 -0.0918089 0.14830951 -0.012372775 0.16952783 -0.33148015 0.45038715 -0.0147845885 -0.09229251 -0.012506322 -0.2672744 -0.035312545 -0.07441705 0.02159836 0.0892182 -0.13184114 -0.10572225 0.025898783 0.225455 0.07039106 0.07445136 -0.06147149 0.17341004 -0.014636025 -0.05761567 0.020944372 0.094296746 0.04294428 -0.14218168 0.05835837 0.06910053 0.19096453
4215 -0.088478155 0.0040024905 0.07218792 0.15536615 0.13629833 -0.22517608 0.0858164 0.21343169 -0.17886108 -0.026730487 0.019183058 -0.14408734 -0.10692833 0.18991512 -0.07754256 0.0494294 -0.005938707 0.19626515 -0.13655607 -0.08128235 0.124773555 -0.0069696265 0.15302859 -0.33360943 0.43711907 -0.0069729346 -0.08893738 -0.011460696 -0.26621127 -0.036742415 -0.077743985 0.017197963 0.095362134 -0.13885176 -0.1228053 0.020568866 0.23412801 0.065360285 0.077415094 -0.07625254 0.18456408 -0.023871178 -0.09187831 0.022176104 0.100094534 0.069807746 -0.13759296 0.04940996 0.077188894 0.19593225
4177 -0.10822868 -0.011511763 0.07946594 0.17131457 0.1018816 -0.24121171 0.08438437 0.21921961 -0.18587928 -0.019993333 0.033606958 -0.14986154 -0.098227695 0.20968434 -0.08366882 0.05490037 0.0024029273 0.19929169 -0.11996237 -0.08384507 0.15016843 0.005712141 0.15752625 -0.33979163 0.43709183 -0.0074818395 -0.08391694 -0.008626685 -0.25757092 -0.032302305 -0.0732939 0.00584296 0.077453785 -0.12692116 -0.11617151 0.010275617 0.23852044 0.063741356 0.07879387 -0.056165718 0.18165036 -0.03854248 -0.069838986 0.027885135 0.07640678 0.07058953 -0.116504356 0.044340424 0.06572992 0.1863342
4176 -0.10135252 -0.009514149 0.08198735 0.16476677 0.13140698 -0.23444945 0.08690017 0.210134 -0.19494489 -0.008844805 0.029096354 -0.14004341 -0.10080027 0.20575601 -0.070475176 0.051017154 0.0034056602 0.20290054 -0.13182554 -0.10090103 0.15227243 -0.0004934051 0.14824294 -0.3422825 0.42909223 -0.014911118 -0.097865954 -0.0013143667 -0.2702488 -0.02841997 -0.06921286 0.0021812376 0.08450453 -0.12900202 -0.124922045 0.010002617 0.2090303 0.06390387 0.07940618 -0.048747826 0.17913173 -0.027285133 -0.08029716 0.028163543 0.087048054 0.0661137 -0.13143343 0.043993454 0.08574474 0.1872653
4206 -0.1074273 0.0040186862 0.06828702 0.15924935 0.12050932 -0.2535967 0.07845422 0.21074401 -0.1851741 -0.024341157 0.024533333 -0.12969236 -0.10619474 0.19962266 -0.06944559 0.07312133 0.007454979 0.19966392 -0.11824956 -0.0842756 0.13946518 -0.0008305552 0.15386157 -0.339135 0.44238955 -0.010515178 -0.08482566 -0.004689131 -0.26244318 -0.029131891 -0.06981998 0.019234087 0.08134466 -0.12837407 -0.12107937 0.009622733 0.21275483 0.057882726 0.0983248 -0.068034954 0.1794584 -0.017240493 -0.07853245 0.022279965 0.09283143 0.076173335 -0.1349718 0.047924694 0.07938845 0.19262311
4210 -0.113753006 -0.009337894 0.085159466 0.17610835 0.11438348 -0.24978535 0.07386389 0.21245852 -0.18775181 -0.013673249 0.020949196 -0.13778271 -0.10945228 0.19955061 -0.066067375 0.055464786 0.00294136 0.20888689 -0.122965075 -0.09684079 0.14205469 0.012825905 0.1294839 -0.3374707 0.42047226 -0.027451096 -0.08251318 -0.018609872 -0.25781566 -0.039014064 -0.0727792 0.015163724 0.085515805 -0.12372132 -0.109716766 0.022926323 0.23787506 0.05595106 0.081176884 -0.07978971 0.20170976 -0.020161754 -0.07561798 0.032582525 0.094700195 0.07683037 -0.13853641 0.05879548 0.06065531 0.18505791
4209 -0.09570278 0.006838516 0.080424786 0.1380391 0.1355369 -0.23624003 0.09370434 0.20284967 -0.17644534 -0.014330659 0.026909972 -0.13272505 -0.09762971 0.20090249 -0.07263567 0.06692431 -0.007168515 0.21845713 -0.12702456 -0.0885543 0.15814231 -0.00094095716 0.15778597 -0.332661 0.4386414 -0.0015007589 -0.09812207 -0.0063559967 -0.25869444 -0.043731518 -0.08175528 0.025768448 0.085956104 -0.1322294 -0.11582994 0.01017617 0.22205292 0.05110886 0.07656798 -0.0507896 0.18073565 -0.007846664 -0.08432757 0.016639141 0.09949888 0.062233448 -0.15151255 0.051895034 0.086588986 0.18832143
2184 -0.1482254 0.04994976 -0.16824353 0.1486294 0.07297514 -0.14167506 0.15886436 0.054936964 -0.22914049 0.08138749 -0.002273918 -0.10207712 -0.086747915 -0.26218805 -0.0037543592 0.101150244 0.31337953 0.17769916 -0.30613077 0.050094053 0.15749377 0.16042703 0.092582464 0.03991606 0.18978727 0.014683693 0.11114832 0.07372954 -0.20183201 -0.27067447 -0.09143596 0.076144606 0.17969261 -0.17385618 -0.11067911 -0.08259257 0.23642954 -0.10688331 0.038527377 0.034431595 0.038162302 0.023192018 -0.04309503 -0.13423982 0.13146901 0.15203992 0.053624656 -0.08184334 0.084856 0.12606248
4202 -0.12063006 0.004852324 0.064330235 0.14909063 0.12945177 -0.23155205 0.073735066 0.21299574 -0.18099388 -0.025754105 0.043633737 -0.1256968 -0.105058074 0.19692592 -0.05828044 0.053845745 0.015333979 0.20516199 -0.12818556 -0.09439382 0.14782017 0.015332124 0.17940758 -0.3483072 0.44291392 -0.02249934 -0.08147801 -0.008496358 -0.252222 -0.034413915 -0.09179683 0.005488375 0.05600255 -0.11498646 -0.096810214 0.028472057 0.2300485 0.06473963 0.09529022 -0.0530341 0.17317285 -0.0067065074 -0.07286876 0.042317268 0.09418358 0.080758475 -0.12517457 0.0329639 0.06380185 0.20453665
2181 -0.18383573 0.167175 -0.19256997 0.03229175 0.05936404 -0.19830942 0.09728428 0.10801045 -0.23294196 0.029348593 0.106490076 -0.09192218 -0.002648826 -0.13078593 0.074830174 0.09245579 0.2318538 0.17599379 -0.38358384 -0.04435558 0.14447096 0.23202862 -0.03470072 0.0762865 0.10374146 -0.011842392 0.19678389 0.10976586 -0.2115675 -0.22004515 -0.037732136 -0.029263498 0.1299515 -0.042078443 -0.044726398 0.056276105 0.2793415 -0.15579477 0.02207965 0.06671024 -0.052518968 0.10906808 -0.05921371 0.041119628 0.2868568 0.12841946 -0.045572292 0.025526308 0.06402732 0.027388593
4204 -0.10807997 0.007956169 0.08501394 0.16540128 0.12743466 -0.24519593 0.07718708 0.18870695 -0.18368056 -0.027022716 0.013048458 -0.13773295 -0.10312726 0.19187666 -0.06451665 0.06422488 0.008499017 0.21050373 -0.13419987 -0.09603823 0.1454791 -0.0036030656 0.14020976 -0.3431355 0.42637762 -0.012614071 -0.08815407 -0.013112317 -0.2625697 -0.04789338 -0.067976594 0.018263048 0.09486665 -0.13510707 -0.11790145 0.011341676 0.22320108 0.04797444 0.084296435 -0.07553948 0.19744085 -0.032176003 -0.086041115 0.020523623 0.08263035 0.06641907 -0.15393849 0.048985634 0.09209257 0.17387433
3983 0.06019726 -0.20889997 0.1080097 0.09955133 0.08026246 -0.082221135 0.15200847 0.0740907 -0.15960252 0.063108034 0.03254012 -0.064852595 0.14113326 0.31729105 -0.040688127 0.229878 0.12815005 0.06295407 -0.1817983 -0.17362031 0.081965804 0.02342006 0.025266835 -0.07213714 0.1976786 -0.11155292 -0.033612758 0.16833901 -0.22161648 0.041495804 -0.09618572 -0.040144388 0.005985931 -0.14300635 -0.09196022 0.010247228 0.4005068 -0.18552807 0.1730408 0.1312939 -0.1488078 0.059848167 -0.07863862 -0.044949725 0.15775262 -0.0075624017 -0.15428707 0.10989132 0.118621774 0.24554478
4159 -0.097810976 0.00580545 0.06804196 0.15490022 0.12417723 -0.22015126 0.08765732 0.197402 -0.1948997 -0.019898487 0.034903485 -0.13857087 -0.0985522 0.20025027 -0.077085055 0.05603302 0.0044822884 0.21842031 -0.12806441 -0.09350085 0.14151375 0.0010177605 0.15484995 -0.3392129 0.4492154 -0.00833208 -0.075911455 -0.02892454 -0.25469467 -0.040684644 -0.08097749 -0.0061633284 0.0873899 -0.13678525 -0.11687277 0.015446586 0.21125643 0.061872452 0.09480197 -0.08154755 0.17531209 -0.013564179 -0.09571917 0.031706862 0.09299807 0.069657035 -0.13472328 0.052683152 0.07185664 0.18708536
4195 -0.08544979 -0.014253897 0.06667346 0.14560232 0.13303061 -0.23681998 0.08037243 0.22807121 -0.17979878 -0.007529894 0.03397626 -0.13940552 -0.09420696 0.21376123 -0.08212211 0.06922634 0.007340305 0.22628322 -0.11663018 -0.0983986 0.14430992 0.005439549 0.15437455 -0.3457118 0.42247066 -0.010086128 -0.09549634 0.00048299326 -0.27005264 -0.042576406 -0.093787126 0.0063425917 0.08828923 -0.13514902 -0.1108929 -0.00090820296 0.19585977 0.06464902 0.06982138 -0.05416034 0.18416895 0.0059224227 -0.082548566 0.04937763 0.09256452 0.07374731 -0.13389547 0.054750696 0.07625034 0.18118829
4182 -0.084556356 -0.0075097447 0.07154229 0.1540923 0.1367181 -0.22950365 0.09263551 0.19738181 -0.1809829 0.0021134936 0.021479787 -0.14341576 -0.10263729 0.20143566 -0.08714839 0.048180576 0.0020585407 0.21450955 -0.13215612 -0.09394559 0.13613293 0.0046242927 0.14310308 -0.34336495 0.44203687 -0.023638219 -0.081000075 -0.013426834 -0.2632257 -0.03977622 -0.07967933 0.009243563 0.09010915 -0.14474097 -0.1222783 0.014764086 0.20968512 0.06854891 0.08500743 -0.0656719 0.17318128 -0.0061884793 -0.08649142 0.01890204 0.09064675 0.06991491 -0.13717449 0.06394148 0.08492536 0.1882358
4165 -0.10547819 -0.0070521543 0.0695677 0.15385774 0.12507957 -0.23829275 0.0757948 0.20239119 -0.19110276 -0.013995447 0.026645653 -0.13533784 -0.110846154 0.18625282 -0.07879862 0.06866208 0.0012010866 0.2040785 -0.11799339 -0.08472614 0.14826688 0.006367322 0.1537926 -0.34852955 0.44416523 -0.019961348 -0.07396543 -0.012129054 -0.26507872 -0.04416737 -0.085348256 0.0070220735 0.0862691 -0.12871338 -0.112720475 0.020097436 0.21138252 0.0532465 0.09289476 -0.06766845 0.17256261 -0.015754147 -0.07292421 0.023570118 0.092205405 0.069007315 -0.1483866 0.05518488 0.0823606 0.18954894
4150 -0.10522638 0.0014275496 0.068390615 0.17013611 0.11064035 -0.24783187 0.085413896 0.2191928 -0.191487 -0.012872043 0.022674132 -0.15309827 -0.101057194 0.20091738 -0.080983594 0.07029069 0.0039055864 0.20353502 -0.114630416 -0.074444935 0.1432673 -0.0016663088 0.14012162 -0.3393244 0.4235652 -0.016564514 -0.0685711 -0.025818989 -0.26466557 -0.027303817 -0.062278062 0.013645868 0.09624627 -0.13118356 -0.12183486 0.022031398 0.23124129 0.06208408 0.084788315 -0.0704748 0.18228498 -0.023339966 -0.06902831 0.017463332 0.10051774 0.08489588 -0.12683392 0.062465128 0.06717088 0.19015397
4207 -0.10084607 0.008457528 0.07815584 0.14406402 0.122722104 -0.23631065 0.07368651 0.20397486 -0.19101769 -0.02236833 0.018513171 -0.14360799 -0.110567786 0.20420766 -0.07096865 0.05100337 -0.0036952798 0.19904871 -0.11681175 -0.08846919 0.16030265 -0.005689281 0.13988242 -0.33479983 0.43496087 -0.019862138 -0.10718031 0.0014681618 -0.2591775 -0.052242577 -0.08716721 0.025427544 0.09146021 -0.12695779 -0.13106751 0.008322447 0.22353786 0.05147001 0.080001704 -0.064238355 0.19466801 -0.021422789 -0.07084749 0.024616368 0.089880615 0.06970744 -0.15356578 0.050511114 0.08717561 0.17943332
4187 -0.10450063 -0.0009285124 0.07855851 0.15741087 0.12834372 -0.24032997 0.08254871 0.18777812 -0.18653555 -0.015073524 0.03845248 -0.13319594 -0.09874606 0.20578176 -0.084120095 0.0778519 0.008778629 0.21858104 -0.121618 -0.08809624 0.15727417 0.019580308 0.1643056 -0.3458291 0.43335542 0.0047954884 -0.086693116 -0.013443467 -0.25235042 -0.038844075 -0.09013448 0.0048763547 0.08452546 -0.13146281 -0.123683654 0.00016437452 0.20494671 0.0567986 0.09273505 -0.051021703 0.18438968 -0.016130626 -0.09233027 0.03155763 0.08387102 0.07858924 -0.13290513 0.035183102 0.07374165 0.1840827
4162 -0.0932243 0.0097744195 0.07087564 0.16295357 0.1462981 -0.24270129 0.08849404 0.2270653 -0.1842534 -0.015782248 0.029385766 -0.14323011 -0.11444084 0.19918005 -0.076858684 0.06806518 0.009000654 0.19716394 -0.13715412 -0.06814584 0.13643244 0.009361077 0.1369897 -0.34586775 0.43820047 -0.01103078 -0.079492435 -0.017365495 -0.25802797 -0.049087398 -0.04854249 0.0017343445 0.102574125 -0.13742109 -0.098464064 0.0011291349 0.20644544 0.04774765 0.096160784 -0.06583949 0.19165495 -0.027583785 -0.082819894 0.012116668 0.0889186 0.0777633 -0.113150895 0.055171087 0.09234991 0.17615499
4189 -0.1037885 0.011145123 0.07269683 0.15160707 0.13684618 -0.24542736 0.09080089 0.21115753 -0.1729029 -0.024042862 0.01269514 -0.14816082 -0.10799889 0.20641409 -0.06762883 0.056427468 -0.008609572 0.18860988 -0.13803054 -0.084353074 0.14304164 -0.0010150864 0.14269929 -0.34578538 0.4313941 -0.027019925 -0.08044703 -0.0154371075 -0.26221052 -0.043467037 -0.06442868 0.03354198 0.0914553 -0.12777308 -0.12737994 0.011254461 0.21718478 0.06671441 0.07388145 -0.06952321 0.17967093 -0.03226429 -0.06985637 0.015143335 0.09514733 0.078997836 -0.14881054 0.06391854 0.08392755 0.1811163
4166 -0.10824492 -0.0066200243 0.07812076 0.1639008 0.12986031 -0.23567113 0.068538055 0.22363797 -0.18781151 -0.020366997 0.028727708 -0.13579941 -0.10114786 0.1949372 -0.071851574 0.06530301 -7.215087e-06 0.20809887 -0.107260674 -0.09919663 0.13198568 0.0007156138 0.14167462 -0.33349472 0.42383426 -0.01211477 -0.09426755 -0.0018066628 -0.27137104 -0.046503015 -0.07432538 0.014878488 0.08454054 -0.13174537 -0.10984205 0.023561936 0.23275448 0.049751323 0.081151746 -0.065532945 0.19462058 -0.009888654 -0.08075285 0.02899891 0.10253454 0.07747733 -0.14300118 0.06023833 0.081814885 0.18622872
4212 -0.121608466 -8.2471466e-05 0.071188636 0.15723366 0.11735226 -0.2589834 0.08146604 0.22303902 -0.18125467 -0.03647683 0.024437869 -0.1361508 -0.10552269 0.20108484 -0.065212205 0.06393791 0.0016392864 0.19878572 -0.12744386 -0.07505039 0.15094954 0.006961261 0.15645699 -0.3373321 0.4431424 -0.017361222 -0.079134494 -0.012047735 -0.25002497 -0.045190923 -0.07128316 0.014918449 0.068677716 -0.12866402 -0.09060192 0.010910377 0.23005043 0.0470582 0.087414466 -0.06806574 0.18593486 -0.022405678 -0.06381277 0.023251541 0.0922153 0.08128842 -0.12649913 0.049452495 0.07878017 0.18182756
4194 -0.081974305 -0.0037996718 0.075004995 0.16455248 0.1230402 -0.23115313 0.08707523 0.2141188 -0.17979133 -0.006403407 0.014051889 -0.16044763 -0.10495564 0.20201981 -0.095163725 0.04230412 0.0034392974 0.1950414 -0.1431194 -0.06778873 0.13211913 -0.001302822 0.12928745 -0.34525874 0.42743218 -0.033730205 -0.07115652 -0.006081365 -0.26605827 -0.0570289 -0.06702261 0.009304447 0.0978227 -0.12767722 -0.120029286 0.016709898 0.22869165 0.056060083 0.07718953 -0.08151268 0.19486989 -0.024380844 -0.07928706 0.0021315569 0.1097398 0.08237028 -0.13702595 0.061813645 0.090684585 0.17438725
4180 -0.10666033 -0.0024608187 0.06797651 0.15643525 0.13497184 -0.23003653 0.0732153 0.18900464 -0.17732702 -0.022517456 0.038044415 -0.13605295 -0.105608605 0.19411083 -0.07007039 0.06065822 -0.0035783183 0.2046458 -0.12607239 -0.09622865 0.14957312 0.011953278 0.15613939 -0.34370422 0.4351495 -0.012874127 -0.090451725 -0.019382153 -0.26590118 -0.046003908 -0.096409574 0.026317777 0.07885359 -0.12212866 -0.11006956 0.016752737 0.23840265 0.055210833 0.08081699 -0.0654612 0.17758916 -0.008643902 -0.0821808 0.02993874 0.08957642 0.08440422 -0.143466 0.043386813 0.07999797 0.19367985
4216 -0.10632817 0.0017905144 0.07571419 0.15267938 0.12596963 -0.23028973 0.10103356 0.19730765 -0.17496225 -0.015737904 0.034151208 -0.13963036 -0.09357438 0.21850008 -0.066848285 0.059692223 -0.0003121682 0.21469174 -0.1325589 -0.09090738 0.15938386 0.003581009 0.16668542 -0.33996612 0.42002618 -0.011707 -0.10609977 -0.03453056 -0.2503675 -0.03729464 -0.08731597 0.018028485 0.085080735 -0.13165106 -0.11520127 0.016840892 0.2232392 0.052447412 0.072223015 -0.06612987 0.19298822 -0.0067705577 -0.08196336 0.026338084 0.08577094 0.07170533 -0.152186 0.04672436 0.07077183 0.18963848
3980 0.088355064 -0.32736504 0.12480769 0.16681664 0.019831924 -0.049363617 0.11904142 -0.071925886 -0.08467842 0.049044594 -0.08596784 -0.06224664 0.046941813 0.14652382 -0.10458367 0.096138924 0.0466277 0.12479329 -0.28179207 -0.14933558 0.071713515 0.024234107 0.18557605 -0.08013704 0.26657298 -0.14462389 0.024367586 0.14232779 -0.2126211 0.0037585704 -0.092121065 -0.18710871 -0.04167632 -0.1450619 -0.096846804 -0.10528467 0.2334159 -0.059982326 0.06337275 0.11725855 -0.2476048 -0.051904656 0.05400945 -0.12423138 0.10080582 -0.018152416 -0.13978277 0.045986105 0.06619925 0.38625062
4174 -0.103540525 -0.004410615 0.061970916 0.15293616 0.12526537 -0.23388441 0.09307329 0.20160232 -0.18406159 -0.024100835 0.041968152 -0.14309388 -0.1019014 0.19655845 -0.08714554 0.050872114 0.0015203244 0.21799791 -0.13361742 -0.08953507 0.15450019 0.016474694 0.15289949 -0.3309709 0.44585574 -0.011451078 -0.08757146 -0.0076775365 -0.25238213 -0.045151785 -0.08252907 0.007665964 0.08916621 -0.12857597 -0.09896683 0.019006746 0.23357548 0.070075214 0.07729603 -0.065397285 0.18415102 -0.029194059 -0.084189124 0.037627418 0.08634583 0.06304342 -0.121229276 0.039858177 0.06983831 0.19106507
4151 -0.09355246 0.00014291334 0.07477642 0.15385817 0.10813515 -0.22631773 0.09748262 0.19666113 -0.18258658 -0.009819523 0.021730473 -0.15367201 -0.09661846 0.20357104 -0.09077117 0.049157303 -0.0009864522 0.21638139 -0.12403835 -0.08969697 0.13977031 -0.024950175 0.1571871 -0.3431437 0.42859837 -0.0149691375 -0.08469096 -0.009960485 -0.25687948 -0.019319361 -0.07863623 0.017705664 0.08029512 -0.14765114 -0.1426796 0.009190855 0.21682812 0.06960666 0.08449702 -0.06257041 0.18482316 -0.011007782 -0.07971123 0.008787979 0.09280011 0.07266096 -0.15271287 0.057108328 0.077890985 0.19017105
4219 -0.102898166 -0.0013373083 0.064667284 0.1423562 0.13357729 -0.23729707 0.091950215 0.20651522 -0.18141244 -0.025479093 0.030215802 -0.14784132 -0.1043518 0.20012961 -0.0825009 0.06228801 0.009443704 0.21261434 -0.13080339 -0.08760041 0.15182072 0.007652233 0.17265062 -0.32769728 0.43144137 -0.006122928 -0.09189871 0.009653639 -0.25506026 -0.045709267 -0.10365885 0.0061752144 0.09192085 -0.1448702 -0.11180809 0.0066299266 0.2159367 0.06669034 0.074987926 -0.04576635 0.19986312 -0.021523535 -0.07850373 0.037399627 0.09843034 0.06549943 -0.12785193 0.0331631 0.065615036 0.18506332
4161 -0.099606104 -0.009444842 0.08476689 0.16152968 0.13975652 -0.24493653 0.072042614 0.21419242 -0.20246716 -0.012090297 0.034814976 -0.1059404 -0.10078293 0.21525456 -0.06727905 0.06393465 0.010502518 0.20467484 -0.12315886 -0.09212098 0.15285788 0.016669018 0.12855642 -0.33906186 0.43549398 -0.018591544 -0.087710015 -0.0062822304 -0.25558847 -0.03795953 -0.068805404 -0.006634705 0.09902109 -0.13324165 -0.10205443 0.0031587624 0.19959816 0.041833498 0.099654004 -0.07919471 0.1939766 -0.017090064 -0.090121426 0.044581372 0.089406244 0.06280476 -0.13101768 0.064541146 0.08956367 0.17965323
4213 -0.082556404 -0.008007173 0.07790228 0.13779415 0.13626596 -0.22663413 0.0636006 0.23370086 -0.16240183 -0.02143836 0.025580743 -0.13027129 -0.11628553 0.20525004 -0.08277259 0.05282509 -0.004455689 0.21126862 -0.12820788 -0.09903962 0.13722381 0.008672068 0.16007257 -0.33805898 0.448169 -0.022240864 -0.081993245 0.007596982 -0.2561645 -0.050160266 -0.08723294 0.01696421 0.07356629 -0.1212192 -0.090855636 0.02603826 0.23440522 0.05585869 0.07549883 -0.06703932 0.19099326 0.014829262 -0.07964484 0.0415915 0.103483886 0.06767467 -0.122902885 0.054223377 0.07317953 0.18730661
2186 -0.1897408 0.15765153 -0.1895298 0.046146803 0.06319972 -0.18905285 0.10685278 0.12059139 -0.22983895 0.0334296 0.08619645 -0.089761585 -0.0017030431 -0.1512452 0.0784232 0.098023996 0.2594615 0.16782668 -0.38152757 -0.06357673 0.12770283 0.24510367 -0.028599406 0.08007114 0.08481339 -0.0032549603 0.19984215 0.11695809 -0.21649343 -0.20895259 -0.0382636 -0.009355378 0.15105066 -0.04965788 -0.03710704 0.053767063 0.2641919 -0.13420744 0.019964019 0.079224974 -0.05443642 0.081986 -0.07890389 0.04088578 0.27774027 0.14298686 -0.010942321 0.0047572507 0.06993182 0.03860026
2164 -0.19699576 0.1710764 -0.18486558 0.04743397 0.057392966 -0.19718742 0.096897274 0.114842 -0.23506214 0.020304665 0.09366442 -0.07169074 3.6090994e-05 -0.11887388 0.11154337 0.1083681 0.2539227 0.16853392 -0.37445992 -0.049133364 0.15586036 0.23802993 -0.018084288 0.06965862 0.09456895 -0.014293505 0.20653544 0.100965925 -0.19950855 -0.21253484 -0.032984503 -0.017525163 0.12950781 -0.057650253 -0.0403457 0.062791884 0.2821535 -0.15204751 0.01967819 0.07362361 -0.050380778 0.09618147 -0.059718043 0.05430851 0.27645653 0.13646592 -0.033588156 0.010775309 0.053849086 0.033670407
4170 -0.11677281 0.0036748745 0.06723101 0.17081513 0.123109594 -0.2525099 0.08984109 0.2090457 -0.18699202 -0.024161072 0.013269641 -0.15690404 -0.08961842 0.20726198 -0.06587291 0.07797733 0.0034570778 0.2052546 -0.13214923 -0.08795803 0.13620435 0.0052657477 0.1476095 -0.34003127 0.4099397 -0.018181229 -0.07640476 -0.010834286 -0.26913384 -0.033699557 -0.06181416 0.020726556 0.09053385 -0.1393496 -0.118530616 0.013059716 0.22189468 0.06767228 0.068770796 -0.055809617 0.17784224 -0.038558234 -0.06991743 0.012789311 0.094125085 0.07865682 -0.14161576 0.05326414 0.09368269 0.19064955
4155 -0.11518211 0.0021878653 0.05955104 0.15599507 0.11573608 -0.2307654 0.07543735 0.2177785 -0.18114021 -0.04036142 0.026543587 -0.1436363 -0.10014444 0.20700076 -0.07381322 0.062480614 -0.013719457 0.18755862 -0.10982061 -0.10591139 0.1279859 0.004863671 0.16482797 -0.34610164 0.43315783 -0.018643672 -0.08279493 -0.004285343 -0.27421808 -0.040222567 -0.09611957 0.028790154 0.06902244 -0.13197115 -0.1151761 0.02480055 0.21285564 0.07643867 0.07680498 -0.076955505 0.1734206 -0.015842875 -0.07630593 0.023766909 0.10138312 0.07769125 -0.14009349 0.048297457 0.07843468 0.192802
4179 -0.10198047 0.0027134798 0.06793952 0.15323709 0.121776335 -0.23184629 0.07878796 0.21835887 -0.17799494 -0.031510033 0.009506385 -0.14115603 -0.09408812 0.191537 -0.062306188 0.07551139 0.006833749 0.20932353 -0.1123359 -0.09987558 0.13476615 -0.0016036552 0.1677406 -0.33681297 0.43167567 -0.014332884 -0.08029795 0.0007592438 -0.26708573 -0.038409654 -0.09141397 0.025458103 0.06962168 -0.15006396 -0.102073796 0.016977299 0.23125054 0.0706625 0.07841974 -0.06294904 0.17983173 -0.0059230775 -0.082558006 0.022888005 0.10980672 0.08218386 -0.14043903 0.04519692 0.076469965 0.19339566
3932 -0.02329806 -0.01625755 0.0156070385 0.09618651 0.105530925 -0.05975938 0.23541853 0.11416524 -0.2988956 0.086503714 -0.13055828 -0.13097605 0.014928554 0.18569359 0.089816295 0.13664706 0.08632198 0.1894995 -0.13796929 -0.17024992 0.14828138 -0.059125632 0.04854187 -0.18191755 0.4011183 -0.088200904 -0.12242132 0.1011672 -0.17995298 -0.042445924 -0.05034007 0.00048610967 0.11592166 -0.19706 -0.08888692 -0.052560225 0.3536026 -0.050911497 0.17305896 0.013622234 0.033812966 -0.01680651 -0.16556682 0.01957149 0.059151914 -0.01372084 -0.23142482 0.049745344 0.055461742 0.13573445
4183 -0.09659897 0.0030495368 0.078072056 0.16003132 0.111506365 -0.22965215 0.0627666 0.23174849 -0.19936557 -0.020802755 0.02009907 -0.13666114 -0.10252251 0.1992413 -0.08156716 0.059291515 0.0024646597 0.21729015 -0.10817648 -0.090509586 0.13514978 -0.014948507 0.15647082 -0.34170645 0.43464777 -0.017071426 -0.0776015 0.010385908 -0.2704811 -0.030403618 -0.07404561 0.005511305 0.06897367 -0.12784693 -0.10326942 -0.00888986 0.21131897 0.06254155 0.09443077 -0.077049084 0.17885561 -0.01038674 -0.07883929 0.029789092 0.098816045 0.07776491 -0.12335089 0.061759327 0.08186009 0.1967217
3834 -0.028398862 0.0146092465 0.01610525 0.021804497 0.057037644 -0.13919209 0.06702089 0.03320743 -0.20813626 -0.111514434 -0.07625381 -0.18576267 0.010482865 0.2587859 0.10820234 0.17391467 0.11232284 0.26805598 -0.27130827 -0.17987294 0.10265599 -0.05070189 0.10426679 -0.21063669 0.34233144 -0.08253515 -0.13102667 0.15086834 -0.1757691 -0.016033385 0.05754201 -0.15347867 -0.0027352425 -0.105979316 -0.09055026 0.04342902 0.32644433 0.0011220098 0.1705248 0.13731882 -0.051791165 0.0678889 -0.11738068 0.007875356 0.062431216 0.006383276 -0.21345894 0.061574847 0.116276324 0.14284731
4158 -0.11191776 -0.0014985504 0.06794303 0.16267253 0.11704702 -0.23589525 0.071015574 0.21063207 -0.19327807 -0.024046065 0.018066255 -0.13656794 -0.10874638 0.18302356 -0.0650033 0.050920125 -0.006059923 0.19685219 -0.1100781 -0.09976992 0.1464419 -0.005383166 0.14688101 -0.34975585 0.44145882 -0.022634625 -0.08813674 -0.0011753797 -0.27912647 -0.04609581 -0.07687625 0.022794541 0.07773746 -0.11730718 -0.106672294 0.005152459 0.22551411 0.039139956 0.08358566 -0.07919749 0.17766726 -0.01654755 -0.058994893 0.026799096 0.09647935 0.0828245 -0.14684281 0.0458496 0.083559945 0.18167041
3836 -0.047005057 0.009810577 0.03718267 0.081534 0.082320355 -0.08577213 0.11598638 0.0531827 -0.22441903 -0.07396789 -0.080461 -0.1708314 0.020027952 0.25299087 0.11984059 0.1435504 0.12571345 0.21329564 -0.2903534 -0.223784 0.07487959 -0.03180102 0.1191482 -0.19054748 0.31735164 -0.10053096 -0.117962435 0.15096845 -0.1753079 0.052439585 0.051907472 -0.125404 -0.00786678 -0.104411185 -0.114651464 0.079090334 0.3409285 0.043373916 0.16316245 0.1501074 -0.059262827 -0.0023889886 -0.15941644 0.022133356 0.08586279 0.016461924 -0.17315897 0.023587445 0.078515515 0.21153393
4154 -0.10681663 -0.006809819 0.070665374 0.15806593 0.10311997 -0.23249123 0.076289855 0.20047498 -0.19572262 -0.031981323 0.03343554 -0.14771073 -0.0929251 0.21212052 -0.08297514 0.058263265 0.0052409726 0.21642268 -0.11646433 -0.088746704 0.15570222 -0.0024317156 0.15211786 -0.34454998 0.43639287 -0.021200063 -0.08307508 0.0014587711 -0.26398742 -0.041585047 -0.0788404 -0.0008458552 0.06690496 -0.12058654 -0.10827128 0.008091001 0.22425409 0.058888815 0.0977055 -0.072353035 0.18391727 -0.011888256 -0.064339206 0.03390446 0.087136626 0.07929537 -0.13537005 0.04693048 0.076389864 0.18169193
3838 -0.058644023 0.013896951 0.032369856 0.08116006 0.092061244 -0.09423515 0.11256602 0.035159394 -0.21830335 -0.08146273 -0.09224659 -0.17244926 0.032196406 0.2532198 0.11812914 0.14227045 0.11446511 0.20989262 -0.3062821 -0.20568937 0.074798755 -0.037143487 0.11682688 -0.19513705 0.3111074 -0.1167683 -0.11500472 0.14751917 -0.18557785 0.042167373 0.06515703 -0.123779885 -0.016093114 -0.08542051 -0.092890844 0.066369236 0.33352232 0.036205556 0.15783708 0.13928887 -0.08541967 -0.006325845 -0.15449446 0.0151582435 0.090823896 0.027029809 -0.18608189 0.020031268 0.10368967 0.22082135
2223 0.005449447 -0.13847983 0.010551829 0.22474803 0.09213786 -0.07626534 0.047919337 0.11835085 -0.13678204 0.24579465 0.02511797 0.052841656 -0.09078413 -0.18599339 -0.055137 0.0018759732 0.16439259 0.13212177 -0.25782654 -0.026905384 0.19191106 0.20059408 0.0061066295 0.0010512501 0.1348498 -0.04218022 0.24883635 -0.01835778 -0.26526836 -0.25613245 -0.16709845 -0.032660138 0.21432373 -0.14308125 -0.10422509 -0.063493416 0.18345037 -0.2529116 -0.047746483 -0.04946096 -0.06293999 0.053790405 0.0761544 -0.10133128 0.19625732 0.068571046 -0.07801013 0.10171055 -0.0020720074 0.26257923
3837 -0.055503473 0.039771818 0.058911193 0.068868436 0.07997014 -0.08911885 0.06922603 0.01528791 -0.21183425 -0.10767677 -0.02825397 -0.16544637 0.050410636 0.26511475 0.11716982 0.12958163 0.11681589 0.1904408 -0.30958578 -0.2354664 0.06832506 -0.027890978 0.08644516 -0.19163384 0.30028117 -0.093490124 -0.088138185 0.1648315 -0.19925764 0.06866213 0.08048607 -0.13511877 -0.05308911 -0.08017161 -0.11012762 0.09527143 0.3398585 0.04813462 0.17040634 0.13946602 -0.113778226 0.03189644 -0.14548351 0.021932261 0.08617611 -0.00276533 -0.17623745 0.05489898 0.11864725 0.19487447
3842 -0.04785857 -0.004101394 0.054409597 0.10172829 0.08289376 -0.07248641 0.10288067 0.012059364 -0.23297107 -0.046841554 -0.08835799 -0.17458938 0.008521494 0.2281596 0.09787306 0.11293945 0.11833382 0.21704869 -0.2993731 -0.23178953 0.06717526 -0.05743041 0.08405872 -0.20808539 0.32449612 -0.12219648 -0.119557664 0.14509945 -0.1933786 0.0439072 0.07176264 -0.13669607 -0.004167638 -0.12560244 -0.11399976 0.07261945 0.31599662 0.042428486 0.16680573 0.13377757 -0.05820579 0.0027527635 -0.16014773 0.0010945133 0.0786597 0.011990102 -0.1825485 0.04872409 0.09287009 0.22314659
3987 0.0721285 -0.19664872 0.116668895 0.08029989 0.040449984 -0.12750854 0.1733138 0.095565 -0.17284006 0.04628389 0.04269848 -0.06666853 0.17098288 0.2922276 -0.042702567 0.22784555 0.122417435 0.086342916 -0.16966629 -0.16196485 0.09496629 -0.0079591265 0.06462378 -0.050406475 0.22635844 -0.06031359 -0.06092153 0.17044239 -0.22804148 0.07247643 -0.13333006 -0.0284532 -0.0060177883 -0.17483869 -0.07301413 -0.040277448 0.41264972 -0.14845446 0.18225123 0.09509014 -0.1586722 0.033460405 -0.07487875 -0.02252139 0.12692925 -0.04062179 -0.14425234 0.120050475 0.11462085 0.2120021
2237 -0.15295462 0.12843572 -0.16244332 0.03859159 0.07182435 -0.18701762 0.054790188 0.08785535 -0.24044102 0.05065709 0.07697863 -0.06065076 0.010217018 -0.083834 0.083272055 0.11236484 0.25574714 0.17822818 -0.38649502 -0.07928547 0.12708133 0.25019363 -0.04932388 0.08296716 0.074416906 -0.039086282 0.22538054 0.12070097 -0.20449801 -0.21533018 -0.04013165 -0.07330762 0.11767944 -0.060525626 -0.041075926 0.04439147 0.2736751 -0.18829784 0.035879325 0.066657074 -0.088941775 0.13835841 -0.046381474 0.045153357 0.2843477 0.12625039 -0.042281386 0.044046942 0.05958345 0.060268562
2225 -0.19496866 0.12819262 -0.16618434 0.059441946 0.10245007 -0.17894971 0.10912166 0.104056574 -0.23917927 0.05359762 0.06954383 -0.05393278 -0.015795052 -0.12110523 0.11161419 0.094234414 0.24030319 0.15430684 -0.38926163 -0.0792479 0.121913254 0.24788755 -0.017517442 0.08605472 0.08074904 -0.05355713 0.18654639 0.11947744 -0.2089634 -0.2172995 -0.025854625 -0.03596738 0.13104889 -0.051263563 -0.028259028 0.07167857 0.2717431 -0.13289653 -0.0124898255 0.09931221 -0.06037971 0.09868298 -0.0653635 0.060373124 0.308763 0.120550945 -0.036722954 0.0043188473 0.045005165 0.09247721
3840 -0.021945124 0.020514274 0.05625339 0.06117551 0.06654683 -0.10468282 0.060260393 0.020453064 -0.19929053 -0.12650287 -0.034819536 -0.19535343 0.05916191 0.28455064 0.09697514 0.12141426 0.10676892 0.19832122 -0.31127554 -0.22648361 0.039497696 -0.05108251 0.070475146 -0.178343 0.2810813 -0.10375873 -0.11414878 0.17848971 -0.21016645 0.05683497 0.08136543 -0.1598678 -0.044716083 -0.083878145 -0.11093536 0.093743265 0.3389591 0.040872667 0.15918387 0.14274468 -0.08976919 0.041404445 -0.14945798 0.015178987 0.088670485 -0.0020305894 -0.18518361 0.059975732 0.12867908 0.16697124
3845 -0.03978449 0.019166667 0.06185516 0.067683145 0.08274321 -0.08497966 0.06399996 0.03565191 -0.20794839 -0.10827315 -0.02769009 -0.16360879 0.042828728 0.27243084 0.11091893 0.120913334 0.11108162 0.19733854 -0.3023968 -0.24694961 0.053897955 -0.035964504 0.079908356 -0.17823578 0.29962835 -0.108607575 -0.09926277 0.1726277 -0.21012214 0.066484325 0.07456645 -0.14427477 -0.038668122 -0.09050871 -0.0962659 0.09965196 0.34444395 0.046198323 0.1678422 0.13261029 -0.10061952 0.034678873 -0.16010617 0.040605307 0.091133766 -0.010983717 -0.17078727 0.06406957 0.10521366 0.1889483
3844 -0.034049768 -0.014614622 0.06716775 0.06688102 0.06233346 -0.111543246 0.055149037 0.0023830764 -0.20837836 -0.11068547 -0.023300283 -0.17313099 0.06320823 0.286567 0.08032921 0.13013667 0.09644152 0.20920824 -0.29997984 -0.24745339 0.043759085 -0.02307644 0.07428327 -0.17213105 0.2893474 -0.09634346 -0.11681163 0.17018083 -0.20729429 0.062162932 0.052637048 -0.15485196 -0.05691976 -0.08685762 -0.10583169 0.09530181 0.33159372 0.034202024 0.16389889 0.14500017 -0.099257775 0.043223247 -0.16184737 0.03918912 0.08944793 -0.0040514083 -0.17936632 0.050414473 0.11714218 0.19367619
2224 -0.003902474 -0.005433987 -0.11503006 0.13932846 -0.049388055 -0.092921205 0.12168408 0.15980375 -0.13482338 0.15192293 0.08152454 -0.093986966 -0.031729102 -0.22435379 -0.012083468 0.01530243 0.22362135 0.15822867 -0.28694278 -0.0132389385 0.18640837 0.15772824 0.06295486 0.0012621089 0.10577695 0.02099011 0.27300137 -0.008727814 -0.23960476 -0.22002707 -0.16883032 0.04480501 0.1837458 -0.030643472 -0.2027443 0.007007089 0.2672078 -0.29613784 -0.04144289 -0.01095225 -0.15336344 0.09019972 0.045161985 -0.096691385 0.17150337 0.19723932 -0.059456296 -0.0031262478 -0.052388564 0.096319064
3944 -0.052960508 0.013265562 -0.006678277 0.06649952 0.03559387 -0.12894131 0.061402407 0.12240278 -0.2041359 -0.056317672 -0.09828942 -0.2065183 -0.004329232 0.22811374 0.10023202 0.12317763 0.14137131 0.26347128 -0.2614887 -0.18728535 0.1041965 0.010711124 0.07002376 -0.21401781 0.37288994 -0.11076121 -0.13044618 0.13171227 -0.16093332 -0.0400527 0.052690573 -0.1361762 0.03844758 -0.124006525 -0.11076961 0.02940537 0.33173388 0.061097972 0.17010303 0.13473625 -0.061156016 0.06680919 -0.11389616 0.036144137 -0.028676862 -0.048321985 -0.18009777 0.07414603 0.0911811 0.17232609
3936 -0.04398136 0.023462467 -0.022607576 0.06756785 0.04856627 -0.1272542 0.0446987 0.120731466 -0.21635415 -0.050501056 -0.10679757 -0.2041348 -0.01183483 0.2259461 0.09710382 0.12108666 0.14220531 0.26290077 -0.2708376 -0.16623119 0.106790625 0.007978115 0.05375074 -0.21570611 0.3798597 -0.121622294 -0.11086771 0.1486381 -0.16249762 -0.04363771 0.055972904 -0.13913578 0.05673935 -0.124036096 -0.1433136 0.012890953 0.31327426 0.048594914 0.16979143 0.123985164 -0.06517255 0.053228818 -0.1033563 0.024977515 -0.011757013 -0.029237034 -0.18423274 0.077789955 0.09524242 0.17791344
2199 -0.2001116 0.12702227 -0.13221711 0.045721713 0.07834441 -0.17123099 0.0541736 0.14432618 -0.20024027 0.06385129 0.12580581 -0.03205971 0.040790576 -0.042432003 0.08411515 0.023602055 0.22598822 0.11841572 -0.40632325 -0.10508751 0.13951209 0.28953034 -0.06958524 0.051864415 0.05242997 -0.06233186 0.2799887 0.1209769 -0.19344297 -0.16057482 -0.037044644 -0.076507114 0.07013518 -0.0308617 -0.06848992 0.10015985 0.27961352 -0.15664686 0.007998539 0.09229522 -0.10891253 0.10063921 -0.013930749 0.07913166 0.29131696 0.09312044 -0.046631966 0.06329606 0.0227984 0.10083196
2154 -0.08018576 -0.065127164 -0.061417673 0.121968746 0.08277776 -0.1677029 0.09904971 0.23092975 -0.19226804 0.21476306 0.17407835 0.049872912 0.0018180109 -0.08963005 -0.09552239 0.07677428 0.20321445 0.049637444 -0.16540998 0.032613758 0.19296488 0.22161108 -0.07045606 0.042531077 0.119452715 -0.014179524 0.22274844 0.009694553 -0.25630838 -0.20938076 -0.21220373 0.12809911 0.19497104 -0.13459902 -0.09318218 -0.014739119 0.28839436 -0.2530887 0.05447153 -0.04027996 -0.08509799 0.07625439 0.049572658 -0.030589616 0.19059353 0.02856279 -0.032475233 0.15232167 0.07093812 0.18287553
2187 -0.19298062 0.12875982 -0.15127483 0.049797732 0.073888 -0.15310016 0.05501263 0.14779007 -0.21023099 0.06744299 0.12693076 -0.048480168 0.033678487 -0.04283114 0.084292516 0.021183277 0.21009268 0.13213824 -0.38700518 -0.10174382 0.14608884 0.28271842 -0.072724946 0.023002345 0.061943937 -0.042339936 0.2868729 0.10040921 -0.20677918 -0.17113502 -0.03154889 -0.078783266 0.092077985 -0.029862281 -0.081857085 0.105697155 0.29172617 -0.15496784 -0.010812589 0.08328322 -0.11029864 0.105650805 -0.009005006 0.07339698 0.27708218 0.09736959 -0.071784 0.08463635 0.034198403 0.1062887
3927 -0.040266126 0.034702383 -0.014010255 0.064471275 0.033514027 -0.13308673 0.03897586 0.110729285 -0.21798396 -0.06339119 -0.101611905 -0.19855976 -0.014512606 0.22637954 0.104348496 0.1271325 0.1303738 0.27041107 -0.2697425 -0.1664004 0.099592604 0.0037309374 0.06697044 -0.21239299 0.37913963 -0.10818161 -0.12865746 0.13526572 -0.15628746 -0.042919777 0.048096713 -0.15251409 0.037175745 -0.12493248 -0.13716173 0.015900468 0.30729407 0.049306907 0.18202297 0.12425006 -0.06537844 0.06836862 -0.114563055 0.025294092 -0.030550944 -0.044755664 -0.19093472 0.076005846 0.10411688 0.1672141
2194 -0.18807936 0.13738914 -0.1484676 0.027107455 0.058264095 -0.16141805 0.061790634 0.12927732 -0.22113708 0.06970013 0.12362807 -0.05455905 0.037325792 -0.05025276 0.086620204 0.029688302 0.19380708 0.13274354 -0.37266728 -0.099304825 0.13064374 0.2564758 -0.09327541 0.06982381 0.04217242 -0.064988874 0.25015736 0.11730711 -0.21024814 -0.18166885 -0.046547666 -0.07588499 0.085335135 -0.038773376 -0.073327266 0.10902113 0.29786137 -0.16138029 0.0073239882 0.08775507 -0.10428702 0.14795421 -0.023272738 0.08062837 0.31720042 0.08655188 -0.08991185 0.088155545 0.030913414 0.0868968
3929 -0.081017576 0.045505334 0.050366145 0.071697615 0.07485708 -0.037853878 0.029126083 0.09033384 -0.21770628 -0.04654286 -0.02921112 -0.14483617 0.049347606 0.24964385 0.08733228 0.07305931 0.17718133 0.20344144 -0.28603652 -0.24490194 0.08086759 0.027434655 0.035864767 -0.19183703 0.32131764 -0.12686956 -0.069411926 0.20559248 -0.18606956 0.021789895 0.05795421 -0.11575647 -0.032719407 -0.12083141 -0.10878766 0.061635986 0.36633977 0.07426922 0.19399226 0.13113597 -0.078002684 0.0723985 -0.14030015 0.028772218 0.033554927 -0.056191474 -0.10947718 0.08588882 0.12657958 0.20719542
3947 -0.08015715 0.04766279 0.04406709 0.08305624 0.06567692 -0.039308697 0.059692383 0.09417143 -0.22881046 -0.029799791 -0.042814277 -0.16238408 0.057875738 0.23753639 0.0899289 0.07148349 0.15237997 0.20184359 -0.28997108 -0.24094382 0.085948594 0.019178234 0.033963628 -0.18667094 0.3132563 -0.11075921 -0.063226715 0.19878659 -0.19366764 0.031926524 0.06671768 -0.14122885 -0.020116879 -0.14464813 -0.1387064 0.053851698 0.3674874 0.08862762 0.16212833 0.13293841 -0.072206356 0.04886704 -0.12563835 0.022508802 0.043857176 -0.069627106 -0.14154068 0.09797893 0.12221592 0.19367488
2162 -0.100248516 0.045629036 -0.15767784 0.14235888 0.047347743 -0.06647641 0.16592503 0.04275753 -0.22456606 0.0858547 -0.032439318 -0.09347284 -0.07686436 -0.2740796 0.026681647 0.05240174 0.32982302 0.20323475 -0.3111677 0.04650236 0.19616914 0.1250199 0.13894708 0.0484565 0.21745689 0.016223552 0.084729075 0.061867878 -0.17060992 -0.2788949 -0.12729385 0.05570038 0.13828656 -0.16155878 -0.11550455 -0.114442825 0.24163565 -0.116569504 0.03892828 0.011303521 0.04622145 0.054063503 -0.058824982 -0.13300088 0.11602856 0.15946667 0.0523492 -0.120551 0.05142522 0.12143642
2170 -0.19221863 0.13153356 -0.13828324 0.035473246 0.070208244 -0.15667744 0.060867887 0.12984374 -0.22902668 0.08418282 0.14058548 -0.0411096 0.03087455 -0.043693066 0.06495924 0.037052523 0.19470592 0.117928885 -0.36501086 -0.10315887 0.13100821 0.25620225 -0.09402453 0.054962616 0.054987866 -0.07210545 0.25625753 0.10987691 -0.21833017 -0.1575814 -0.043780986 -0.06347757 0.09005482 -0.03118427 -0.08189227 0.12203238 0.2971338 -0.17745635 0.026531482 0.07968061 -0.110849306 0.13265377 -0.012053661 0.07057746 0.3198585 0.08578959 -0.08884888 0.10538823 0.04263756 0.09000881
2167 -0.15310402 0.04772338 -0.15586491 0.17220515 0.089703314 -0.015426797 0.18745032 0.04146859 -0.24469438 0.11706605 -0.04614529 -0.08356346 -0.09323933 -0.24303158 0.059471466 0.060199227 0.31531003 0.17542875 -0.29135025 -0.010717303 0.18636061 0.13267007 0.113913 0.0043700906 0.2107809 -0.032311913 0.10328227 0.06974157 -0.16578537 -0.25529975 -0.112371765 0.07635865 0.16236313 -0.17858586 -0.13658614 -0.038430944 0.26822534 -0.083737336 0.0362579 0.04505531 0.044389717 0.03026136 -0.079522334 -0.104366474 0.15472405 0.14786866 0.015512836 -0.099560075 0.014430923 0.16726205
2284 -0.08936684 0.08322052 -0.010182953 0.16038495 0.15252766 -0.13195375 0.053493302 -0.00379672 -0.25963607 0.041423243 0.11182569 -0.061420422 -0.043050535 -0.083445854 0.02282914 0.066584475 0.201868 0.2452081 -0.35209304 -0.13220875 0.0548356 0.07702558 -0.021837965 -0.043727245 0.14511803 0.028923191 0.15487844 0.03697273 -0.3338818 -0.18352634 -0.01582064 -0.092944175 0.12776282 -0.1509359 -0.0769005 0.07706585 0.22987035 -0.18449183 0.027470807 -0.090243585 0.06171559 0.14486992 -0.15205494 -0.03964715 0.32201332 0.21794252 -0.035687327 0.032261334 0.08502384 0.067986235
2309 -0.09178491 0.0876267 -0.032221906 0.13518274 0.15502274 -0.121928886 0.055907805 -0.0044274754 -0.2617115 0.050412774 0.117712535 -0.056989007 -0.036197536 -0.07228135 0.029766038 0.07535499 0.20307983 0.2575801 -0.33096853 -0.14936376 0.058464393 0.09645201 -0.03488206 -0.04346231 0.14750573 0.04137012 0.13905025 0.032418985 -0.3244605 -0.20937763 -0.058175404 -0.05398926 0.13827665 -0.1502592 -0.07998159 0.07410641 0.22147398 -0.18937215 0.026913486 -0.09112945 0.066627964 0.17116748 -0.17190072 -0.015240558 0.31121525 0.21458535 -0.05287574 0.030733364 0.08031918 0.051258247
2274 -0.09770086 0.09083214 -0.018321222 0.15852818 0.14680886 -0.1457367 0.04536883 -0.0069344533 -0.26481178 0.035382055 0.11182375 -0.054808795 -0.046638772 -0.08252468 0.027791202 0.07390546 0.20393495 0.26098716 -0.332741 -0.10930024 0.068398565 0.064014815 -0.022220382 -0.040054575 0.15168692 0.038638536 0.14554833 0.03337066 -0.31981114 -0.19901289 -0.025093276 -0.08820242 0.12534086 -0.13554887 -0.070786186 0.06520906 0.23155458 -0.21464357 0.034036484 -0.10357544 0.08743249 0.15279967 -0.14684771 -0.03998967 0.3092886 0.22923154 -0.046249483 0.028888546 0.0838941 0.045838535
2322 -0.10869756 0.096909285 -0.02734877 0.14480105 0.13671386 -0.13640974 0.053777073 -0.023421962 -0.27383515 0.05012602 0.11261555 -0.053261265 -0.03494774 -0.08141879 0.01470195 0.071197696 0.19162606 0.25450483 -0.3291146 -0.12942916 0.06116654 0.0838005 -0.018422324 -0.04737044 0.16508971 0.03000981 0.14280944 0.038586386 -0.32624558 -0.19187583 -0.053044073 -0.06005624 0.107234664 -0.14407894 -0.0914635 0.06806667 0.2349819 -0.18801922 0.047622073 -0.08392513 0.073875576 0.16709447 -0.1605861 -0.025191566 0.31932616 0.22051515 -0.057830654 0.01397994 0.083927706 0.066706695
2297 -0.11392729 0.08303903 -0.01117895 0.15331195 0.14972506 -0.1372627 0.045433782 -0.015745578 -0.26381904 0.06639074 0.09873551 -0.025753818 -0.04547002 -0.081079945 0.035753354 0.08654668 0.21218352 0.25495934 -0.3059769 -0.14455591 0.056903306 0.09235215 0.0019658234 -0.051482096 0.14779744 0.028858654 0.15932049 0.036658645 -0.2990297 -0.18010138 -0.07424444 -0.06449813 0.109677285 -0.16171816 -0.08825467 0.08041261 0.23289035 -0.19712985 0.049357858 -0.07819323 0.0884865 0.16683981 -0.17024353 -0.023962712 0.32215363 0.2359993 -0.052909974 0.008322438 0.055478774 0.080402985
2290 -0.09410543 0.084789336 -0.03355976 0.15067641 0.14985825 -0.1557999 0.043956555 0.008912016 -0.24601279 0.039518207 0.10052917 -0.05845647 -0.051694274 -0.08206678 0.014071795 0.09469578 0.1958806 0.25713456 -0.32604668 -0.11562831 0.022512725 0.08778639 -0.0071650473 -0.056277275 0.15494213 0.043197248 0.15656763 0.0370275 -0.32810193 -0.19213961 -0.04412586 -0.059510425 0.12205754 -0.1488653 -0.075892344 0.0794894 0.23655176 -0.1809553 0.026153423 -0.0877077 0.074635364 0.16898552 -0.16515167 -0.048752066 0.31312653 0.23371959 -0.03856331 0.026319835 0.087516576 0.08536256
2210 -0.13549824 0.15223189 -0.16488013 0.08610236 0.10014823 -0.07589407 0.07305972 0.07043715 -0.2747612 0.09615858 0.035742164 -0.115543015 -0.026001502 -0.07636156 0.06662939 0.029365677 0.23218273 0.22603849 -0.36719334 -0.15431052 0.12770689 0.2268892 -0.06314189 -0.058264714 0.17131597 -0.015031164 0.24298331 0.10544623 -0.23561804 -0.20693035 -0.028972235 -0.026572028 0.15138961 -0.074140206 -0.16128734 0.02349086 0.23652169 -0.13091922 0.0111302845 0.026773764 -0.06937021 0.10501652 -0.12638116 0.04424719 0.22546783 0.16400246 -0.033198986 0.008336196 0.05509519 0.059631854
2178 -0.13133505 0.1307022 -0.15577643 0.1046176 0.101835504 -0.06869081 0.07711927 0.08681813 -0.256295 0.08626122 0.027254809 -0.12018546 -0.03403053 -0.09188091 0.073588535 0.013479356 0.25084597 0.20679455 -0.3907889 -0.15147187 0.12118536 0.22020777 -0.046066236 -0.05712576 0.16801323 -0.02797038 0.23728365 0.119093604 -0.24642661 -0.21967714 -0.02071916 -0.031535465 0.1477283 -0.06969369 -0.16287647 0.031478595 0.23487219 -0.11363773 -0.0026416986 0.035418928 -0.06704268 0.092597514 -0.10769443 0.033065982 0.23187636 0.16892914 -0.021372134 0.0021256886 0.045160335 0.06670585
2317 -0.11231075 0.10277483 0.019728817 0.14458442 0.16378736 -0.18896732 0.02665595 -0.0071445713 -0.21732007 -0.008609691 0.13807261 -0.0714298 -0.052983698 -0.05845706 0.0038260343 0.08993134 0.15667383 0.22539505 -0.33253697 -0.12221186 0.021589007 0.090329 0.0024129006 -0.08099088 0.16774154 0.07659208 0.13235767 0.023205698 -0.33815438 -0.17818262 -0.040859766 -0.03524438 0.111169435 -0.12946151 -0.08483901 0.096771054 0.25664514 -0.17014705 0.043866955 -0.09034481 0.11049374 0.17137785 -0.16495335 -0.04657003 0.31920677 0.21848792 -0.059956312 0.033568505 0.09258325 0.06961353
2214 -0.17886925 0.17156178 -0.14630973 0.03674077 0.09203171 -0.059972376 -0.00921064 0.12669353 -0.23107888 0.1095106 0.09506096 -0.024912164 0.0042128037 -0.035701364 0.0498422 -0.023358464 0.26421526 0.16149677 -0.37914297 -0.14169279 0.12903425 0.2696346 -0.087983176 -0.018009864 0.1243138 -0.07456596 0.28288057 0.16206017 -0.20333774 -0.1611617 -0.048962772 -0.06583798 0.08088287 -0.09827217 -0.1379953 0.062359907 0.27387732 -0.071188554 0.03603506 0.062352873 -0.101635545 0.14023343 -0.05735558 0.050120212 0.21419366 0.047345728 -0.010096748 0.10830924 0.0861291 0.14898278
2270 -0.1202204 0.11384343 -0.0034920622 0.13317308 0.1721262 -0.16126458 0.033645388 -0.031544752 -0.23610854 0.016189035 0.14068204 -0.061976667 -0.07518251 -0.06281204 -0.011930101 0.07508319 0.14293875 0.23322612 -0.3252828 -0.11089367 0.028079135 0.09301139 0.0053247586 -0.067316554 0.15716918 0.070422195 0.12459342 0.0044564605 -0.32085335 -0.17416424 -0.06888178 -0.044959035 0.11908514 -0.1238446 -0.09507769 0.1033216 0.23314372 -0.16935924 0.038844075 -0.10917177 0.121797316 0.18614408 -0.18341291 -0.041877996 0.32314014 0.22619551 -0.07481127 0.029752154 0.093896195 0.09174088
3918 -0.064242974 0.027564656 0.001994665 0.08773098 0.012882835 -0.09351705 0.039130427 0.10455532 -0.19768274 -0.016974969 -0.0643971 -0.19932714 0.01361671 0.22552551 0.08109117 0.03561346 0.124615975 0.21082555 -0.32954526 -0.22827394 0.117000826 0.07419004 -0.0025907024 -0.2035821 0.3214269 -0.14244376 -0.049124997 0.14389922 -0.18584017 0.021349343 0.10545884 -0.13652216 0.012495134 -0.03632448 -0.17886169 0.04088376 0.3355872 0.087405786 0.14592154 0.1631952 -0.17476887 0.019739896 -0.0920823 0.0538136 -0.015370506 -0.07104343 -0.14879093 0.083049096 0.09990802 0.20287858
2321 -0.11350561 0.11372013 0.012920795 0.14557503 0.17403011 -0.17177391 0.032453995 -0.004375525 -0.2113346 0.0047205067 0.13648233 -0.06950317 -0.07302168 -0.05638422 0.0022901583 0.08047492 0.1564808 0.22491373 -0.3429003 -0.12516163 0.01575653 0.10559903 0.015849745 -0.08775333 0.16223496 0.06254017 0.14094518 0.0018448236 -0.32707906 -0.15965465 -0.052057873 -0.027011134 0.11981557 -0.11137895 -0.08433598 0.110868804 0.24476102 -0.15438528 0.038945146 -0.11091516 0.11753991 0.17045976 -0.17166972 -0.04072668 0.31961018 0.23431823 -0.05001149 0.02883952 0.07544783 0.10646606
2292 -0.11431379 0.11489572 0.02585194 0.14615592 0.17322384 -0.1609549 0.017696094 -0.02373198 -0.22876672 -0.005949848 0.14819503 -0.07116539 -0.062166657 -0.06674446 -0.007739102 0.06703596 0.14684702 0.20878829 -0.3333478 -0.11968354 0.022190917 0.08835657 -0.005583624 -0.072797164 0.16633381 0.07432258 0.13254848 0.030170111 -0.34109354 -0.16341117 -0.04222362 -0.028991478 0.11198665 -0.12325665 -0.10142196 0.10939467 0.2430338 -0.16191848 0.04147131 -0.11024489 0.12445604 0.15545622 -0.17766853 -0.04481527 0.32600456 0.22575264 -0.06398149 0.033866454 0.10206488 0.07612542
2286 -0.12186463 0.10910347 -0.0023421124 0.13656315 0.18331918 -0.18743055 0.032642793 -0.0027815967 -0.22500747 0.0011074427 0.13417202 -0.05644636 -0.069470726 -0.062209774 0.011817592 0.09073223 0.16277476 0.23534638 -0.3364739 -0.09651861 0.032185145 0.09732313 0.0072267735 -0.06184423 0.16077456 0.07660722 0.13313903 0.013108161 -0.3096723 -0.17540273 -0.05377474 -0.054136675 0.122475676 -0.13827477 -0.09143649 0.094953015 0.23265499 -0.17673866 0.03994664 -0.08875156 0.13673113 0.16804774 -0.17170556 -0.03971419 0.31890202 0.22911331 -0.056327865 0.016928485 0.07170747 0.088731274
2302 -0.14460185 0.10785622 0.04015782 0.16430923 0.14512707 -0.19557393 0.024596864 0.0010883639 -0.2093697 -0.05816076 0.15378034 -0.09238435 -0.048554853 -0.06590242 0.021012468 0.076331764 0.15563394 0.18683338 -0.34773692 -0.1273094 0.019868614 0.10073577 0.013535632 -0.055009976 0.14237718 0.10015841 0.110970415 0.043113332 -0.33697608 -0.17067821 -0.0027001852 -0.02543005 0.10064492 -0.12438129 -0.07494262 0.12965402 0.2909984 -0.1311456 0.013047933 -0.067332044 0.14671615 0.12984924 -0.17108779 -0.02758605 0.32936686 0.20672709 -0.055732343 0.017400363 0.09717203 0.04047758
2287 -0.120270565 0.12247058 0.000369134 0.1488914 0.18683657 -0.15212879 0.03612855 -0.012138206 -0.23301104 0.0035816447 0.15333256 -0.05297034 -0.07085498 -0.0689764 0.0061597237 0.06796689 0.15441237 0.20572688 -0.33668488 -0.11729997 0.03736997 0.09743496 0.007681131 -0.073873065 0.15512827 0.07555451 0.14090791 0.014000889 -0.33585128 -0.1678576 -0.055041015 -0.022128245 0.124858275 -0.120725535 -0.10779831 0.10230478 0.213098 -0.17521484 0.030296603 -0.10633492 0.114051655 0.16239622 -0.17282742 -0.04963311 0.32337877 0.22904244 -0.05927241 0.03508133 0.09049893 0.08678138
2276 -0.12025345 0.113508195 0.046825353 0.16252114 0.15853648 -0.16436626 0.03484594 -0.023116417 -0.22809806 -0.028893964 0.14263009 -0.05887785 -0.071122825 -0.07038937 0.027378634 0.068041086 0.1208337 0.19907649 -0.32295534 -0.14186485 0.012505842 0.068822466 0.01736919 -0.08176814 0.16600336 0.089613415 0.0659288 -0.009236795 -0.3392948 -0.15518267 -0.030295154 0.0031925228 0.102929875 -0.12008127 -0.07765523 0.13397822 0.26542252 -0.15806161 0.033029817 -0.120069236 0.15491536 0.16464236 -0.19485205 -0.046850514 0.32342982 0.20950152 -0.096317925 0.021213802 0.11625719 0.06672535
2323 -0.11742353 0.13444708 0.014908944 0.13172942 0.16389145 -0.19730242 0.006198958 0.0070324023 -0.22503005 -0.011488011 0.16181982 -0.057582915 -0.06755462 -0.06728961 -0.014810246 0.06926965 0.16257395 0.22568074 -0.32742506 -0.1022933 0.03481638 0.10164038 0.015219772 -0.06695193 0.16272627 0.08654335 0.1498917 0.005028274 -0.32933608 -0.16143544 -0.06782742 -0.030352268 0.108226374 -0.11241954 -0.09440509 0.09220992 0.21871306 -0.1646385 0.057282556 -0.116148695 0.12306733 0.17430115 -0.1779208 -0.030769303 0.31616083 0.23624124 -0.040457975 0.024355436 0.08379932 0.07666075
2315 -0.111230485 0.109710686 0.05082268 0.14951657 0.16612256 -0.16518421 0.0074563855 -0.034444083 -0.2135649 -0.059052363 0.14217313 -0.05673479 -0.07873908 -0.07249729 0.021701127 0.091877185 0.14202668 0.20107777 -0.33175647 -0.14561847 0.009401376 0.07927617 0.044068858 -0.08957971 0.17498358 0.09700815 0.08039659 0.022179069 -0.33905244 -0.15306859 -0.03684726 -0.008838072 0.087857775 -0.11740453 -0.07414211 0.13363315 0.26319405 -0.15534881 0.043122 -0.10762272 0.14646949 0.17142437 -0.1907445 -0.044993576 0.31581813 0.21357322 -0.0724265 0.008424719 0.105302215 0.06246402
2311 -0.12518345 0.10165314 0.016509553 0.14886174 0.17561708 -0.19172369 0.012919645 0.008940176 -0.22895586 0.017050454 0.14516544 -0.04883779 -0.07905345 -0.07724497 -0.0054197507 0.07364469 0.16403201 0.22728457 -0.31225052 -0.11006828 0.027097287 0.101480804 -0.009356838 -0.073706426 0.16370904 0.06459423 0.12255994 0.019950746 -0.33844247 -0.17635877 -0.06122234 -0.019010594 0.11833943 -0.1217094 -0.096749276 0.08815674 0.2292682 -0.16310324 0.04373909 -0.10380787 0.13496193 0.16460982 -0.1684176 -0.026519923 0.3183814 0.2316862 -0.052604217 0.033536263 0.09564132 0.09343172
2316 -0.116026886 0.11056808 0.01195928 0.13361792 0.16653205 -0.17734183 0.018001461 -0.027811483 -0.23433287 0.007056477 0.15101339 -0.05589001 -0.0749267 -0.06493499 -0.015724652 0.07650117 0.1607408 0.22164057 -0.33328256 -0.10513557 0.02531652 0.08354623 0.0092531685 -0.07007058 0.15604766 0.060762573 0.12860914 0.04306705 -0.3321946 -0.16628407 -0.06603217 -0.035832044 0.10908816 -0.120879225 -0.11190072 0.0932426 0.21973184 -0.18651806 0.050277326 -0.09592502 0.11686887 0.1781732 -0.16412206 -0.037707962 0.3283216 0.24022473 -0.063503414 0.02744901 0.08898362 0.070153885
2218 -0.1232646 0.14351337 -0.16302964 0.09305737 0.055821992 0.0070121055 0.09154531 0.18739504 -0.24537379 0.13883874 0.16113833 -0.07966009 -0.03741488 -0.061163604 -0.0070847366 -0.01618349 0.31275806 0.1133969 -0.25911796 -0.031172164 0.22939757 0.21355084 -0.07966453 -0.045579866 0.16128002 -0.022477604 0.21946858 0.034074903 -0.16246666 -0.1952699 -0.14489086 0.079445556 0.1901318 -0.12910607 -0.22264463 0.062399857 0.33277974 -0.1470807 0.10896059 -0.022905685 -0.028166031 0.12084446 -0.055872437 -0.039237108 0.09720274 0.075410455 0.006710025 0.098455034 0.0023398136 0.12630014
2324 -0.11107933 0.115720786 0.04509034 0.15377784 0.15653822 -0.17043023 0.028980087 -0.028931534 -0.21704091 -0.056593835 0.15653436 -0.091080554 -0.0682255 -0.06492849 -0.002967701 0.088467576 0.13699932 0.19796453 -0.3270974 -0.13489956 -0.0031577046 0.061555628 0.02981943 -0.08603372 0.15459308 0.100822866 0.066353366 0.025827209 -0.34969732 -0.1493897 -0.012328847 -0.006142348 0.107867695 -0.120735615 -0.061887383 0.1387689 0.25935176 -0.13341597 0.036518946 -0.10301025 0.15620305 0.16616328 -0.1971633 -0.049725596 0.32577956 0.22303553 -0.0627901 0.021693753 0.11099024 0.045900945
3958 -0.051055767 0.025887085 -0.0038888732 0.07662299 0.02657301 -0.09958853 0.027828638 0.11425894 -0.18983068 -0.0132086435 -0.07172086 -0.19095202 0.014541098 0.21405633 0.08055658 0.043095235 0.12213631 0.21955994 -0.32694268 -0.2398164 0.10927201 0.09248882 0.004816177 -0.2051909 0.32505715 -0.1318067 -0.0485997 0.15313159 -0.19497672 0.0094570415 0.0966627 -0.1336592 0.011044817 -0.055964507 -0.17265591 0.023936372 0.31531724 0.09905112 0.13404766 0.17318764 -0.18048622 0.041002072 -0.099430814 0.06309585 -0.0061531714 -0.08210977 -0.15141903 0.087072305 0.11368702 0.20175838
2161 -0.10552737 0.09860862 0.058002256 0.15058458 0.15640707 -0.1789434 0.020602575 -0.057106484 -0.21521866 -0.06421272 0.15218684 -0.07613886 -0.051277436 -0.071696445 0.008190307 0.08187248 0.13689001 0.2099024 -0.34015077 -0.16065387 0.014666794 0.07680237 0.016821843 -0.07077986 0.15580988 0.10300204 0.06963915 0.022425931 -0.35257927 -0.16163547 -0.025905155 -0.0016680077 0.09928445 -0.12520202 -0.07542659 0.116908595 0.24595281 -0.14157282 0.039834794 -0.10620696 0.13150057 0.1675431 -0.20187736 -0.04006543 0.30960855 0.21837027 -0.0660793 0.019356601 0.12325632 0.04931388
2304 -0.109189175 0.11908443 0.059213534 0.1542318 0.15795289 -0.18779914 0.027785484 -0.04832352 -0.19916785 -0.053177755 0.1595078 -0.08346205 -0.05148095 -0.056499712 0.0061436007 0.08468614 0.13288611 0.1793662 -0.34581262 -0.1286041 0.0031407932 0.07035874 0.022389766 -0.07313724 0.14274111 0.11117628 0.0797553 0.0023644418 -0.34226468 -0.14384815 -0.022376535 -0.009060689 0.103473514 -0.12706873 -0.08634908 0.1371334 0.2731011 -0.15098901 0.03671678 -0.10126344 0.15043361 0.15892205 -0.18667561 -0.067509405 0.3253859 0.20902933 -0.08276751 0.021589603 0.11349036 0.043314286
